429 300
plane 0.24724 -0.38309 0.048607 -0.37389 -0.091945 0.18105 -0.34778 -0.29445 0.42305 0.1311 -0.11757 -0.46189 -0.19087 -0.25174 0.18204 0.48029 -0.1296 -0.099852 -0.16722 -0.054486 0.20447 0.18109 -0.41072 -0.0046494 0.015764 -0.24943 0.085497 0.41029 0.17397 -0.10267 0.043144 -0.21641 0.13764 0.047339 -0.36445 -0.16042 -0.20215 -0.095575 0.066464 -0.074326 -0.15229 -0.29014 0.26586 0.2697 0.47772 -0.072849 -0.15957 0.11401 0.029886 -0.09443 0.1646 0.12599 0.06072 0.027419 -0.37791 -0.39189 -0.14725 -5.8961E-5 0.099636 0.39723 -0.10024 0.023767 -0.14996 0.059791 0.059393 0.25512 -0.27565 -0.22206 -0.32331 0.16307 0.4515 -0.25115 -0.026215 0.34572 0.097705 -0.14795 0.21134 -0.16106 0.052537 0.36776 0.59569 0.32684 -0.19429 0.25571 0.040506 0.31209 0.17802 -0.30873 -0.02509 0.011644 0.055815 0.035725 -0.29943 -0.0075648 0.35754 0.40422 0.12882 0.020055 -0.25513 -0.14751 0.022338 -0.082213 -0.30582 0.086932 -0.25677 -0.1674 0.026965 0.16391 0.094058 -0.093644 0.025813 -0.071039 -0.42227 0.25746 -0.015845 -0.18789 -0.43869 -0.40701 0.084973 0.062871 0.15455 -0.19496 0.13726 0.26822 -0.26148 0.066065 0.0021855 -0.021836 -0.012893 -0.021743 -0.2344 0.038301 -0.15684 0.092081 -0.076825 -0.55634 -0.050199 -0.070982 0.18017 -0.028918 0.087956 0.027208 0.40605 -0.52191 -0.063177 0.017374 0.04562 -0.21417 -0.21889 -0.29817 -0.013729 0.22845 -0.1133 0.341 0.28081 -0.10295 0.17382 -0.52388 -0.084537 -0.16935 -0.43808 -0.10175 -0.13454 -0.16794 -0.37215 -0.11661 0.12628 0.18495 0.20045 0.04705 -0.01966 0.075795 -0.051349 0.049275 -0.020349 -0.12321 -0.013427 0.19337 0.0078033 -0.082772 -0.31232 -0.0052235 -0.068497 -0.32158 0.081164 -0.058371 -0.090706 -0.0039719 -0.12547 -0.10411 -0.23036 0.23454 -0.20501 0.32452 -0.060468 -0.089756 0.15739 0.010138 0.25459 0.061805 0.2304 -0.14439 0.20885 0.0045795 0.073706 0.27384 0.48179 0.12216 0.091074 0.1346 0.27974 0.11957 0.09447 0.15152 0.12056 0.077604 0.0029851 -0.21126 0.079763 -0.31934 0.21062 -0.091177 -0.07024 0.34665 0.083511 -0.094009 -0.24623 0.12528 0.21697 7.9253E-4 0.061796 -0.33527 0.044303 0.37615 -0.036262 0.035286 -0.043254 0.12109 -0.098783 0.18167 -0.053575 -0.085265 -0.091738 -0.036799 0.23466 -0.3499 0.16777 -0.32184 -0.23869 -0.040942 0.052211 0.27837 0.18216 0.084662 -0.27597 -0.057193 0.20378 -0.058602 0.44327 0.02886 0.3976 -0.018695 -0.18236 0.36542 -0.30414 0.43091 0.015741 0.15385 -0.22625 0.21355 -0.077034 -0.18217 -0.20309 -0.058367 0.28618 0.072515 -0.42115 0.16214 0.16705 0.0088244 0.38784 0.19168 0.54885 -0.27469 0.021067 -0.17441 -0.39097 -0.15628 -0.42467 -0.19928 0.45047 0.025622 0.011982 0.22795 0.13804 0.073643 0.017721 0.33081 -0.039556 0.15206
stupid 0.036149 0.022439 0.141 -0.19165 -0.24785 -0.27651 -0.58704 -0.15077 0.21957 -0.22418 -0.15787 -0.30336 -0.19008 0.053963 -0.090094 0.19378 -0.022445 -0.14821 0.029531 0.10586 0.32304 -0.16675 0.27749 0.12199 0.098939 -0.094257 0.06992 0.27892 -0.26765 0.061407 0.085091 -0.13425 0.07109 0.47239 0.015892 -0.31178 -0.57425 0.2208 0.045111 -0.19915 -0.22677 -0.25047 0.25071 -0.30834 0.025996 -0.72086 0.2328 -0.20293 -0.013692 0.17052 0.16163 -0.16649 -0.13881 -0.08639 -0.067154 0.028343 -0.29082 0.33131 -0.17636 0.21902 -0.033586 0.34677 0.32238 -0.16434 0.070362 -0.019122 -0.36507 -0.12206 0.14261 0.37811 0.091418 0.12757 0.13659 0.36128 0.17454 -0.11343 0.38408 0.12031 -0.15888 -0.30435 0.31495 0.10946 0.23655 -0.28506 0.21276 -0.13063 0.036036 0.050345 -0.35361 -0.0020684 0.3793 -0.03444 -0.0073792 0.13127 -0.41766 -0.21982 0.090825 -0.15891 0.057311 -0.1637 -0.082032 0.35075 0.016266 -0.20829 -0.15092 0.018396 0.16188 0.10627 0.19703 -0.11876 -0.115 0.44761 0.075323 -0.34164 -0.036747 -0.26721 -0.45358 0.0055099 -0.10309 -0.20176 0.24601 -0.013615 0.30293 0.08652 0.27066 -0.13313 -0.051566 -0.32895 -0.11491 0.019515 0.20348 -0.24305 -0.046835 0.11325 0.038565 0.14874 0.18142 -0.45161 -0.32307 0.11656 0.059003 0.090792 -0.27468 0.10124 -0.32606 -0.1209 0.11662 -0.18812 0.06682 0.21495 -0.023079 -0.04061 0.14539 0.14874 0.19735 -0.07731 -0.1871 0.33878 0.037075 -0.060992 0.12462 0.07662 -0.090108 -0.28434 -0.089571 0.11443 -0.47328 0.32196 -0.26092 0.041476 -0.40544 -0.19125 0.037674 -0.04329 0.026985 -0.3472 -0.27563 0.10075 -0.37954 0.048729 0.019058 -0.074394 -0.21214 -0.15936 -0.40945 0.11048 -0.062853 -0.45606 0.25497 0.13342 0.29487 0.052149 -0.027966 -0.088056 0.063473 -0.32919 -0.11873 0.068999 -0.259 0.11985 0.16807 -0.072656 0.062015 0.0872 0.1673 0.30505 -0.0038021 0.034419 -0.23337 -0.14414 0.1976 0.48666 0.021485 0.20269 0.0010029 -0.15534 0.0028656 0.35717 0.43383 0.19963 -0.11424 -0.35184 0.014804 -0.21447 0.2411 0.042461 0.029227 0.014263 -0.10472 -0.12323 0.013091 0.0080613 -0.047668 -0.007334 -0.14572 -0.397 -0.033321 -0.32074 -0.33221 -0.053466 0.18003 -0.21685 -0.15493 0.083134 0.36575 0.061462 -0.097566 0.09149 -0.050416 0.21012 0.11985 0.30889 -0.41614 -0.024711 -0.09314 -0.11153 0.016521 0.15028 0.34795 0.18118 0.40189 0.45269 -0.51457 0.22164 0.35831 0.21037 0.02826 0.17594 0.088243 0.086121 0.019955 -0.24263 0.15913 0.20548 0.011461 -0.1876 0.27962 -0.35476 -0.36114 0.17372 0.26278 0.0068163 -0.15851 -0.27203 -0.11245 0.2947 -0.017604 0.14904 -0.016609 -0.45225 0.20558 0.49931 0.15262 0.24992 -0.14832 -0.11053 0.40028 -0.11125 0.29547 0.15899
egg 0.040812 -0.018377 0.13492 -0.70905 0.11375 0.52816 -0.13251 0.088002 -0.20535 -0.31417 -0.061768 -0.44576 -0.35777 -0.32507 -0.028825 0.2213 -0.071051 -0.41106 0.010201 0.2113 0.51686 0.17335 0.27361 -0.21158 0.049383 -0.24714 0.12192 -0.025597 -0.37063 0.16371 -0.12161 0.29403 0.017452 -0.34184 -0.09323 -0.018501 -0.021243 -0.40919 -0.21064 0.070529 0.015664 -0.20923 -0.35323 -0.064025 -0.13771 -0.30218 0.41133 -0.17015 -0.24992 0.26972 0.15099 0.21957 0.17838 -0.26902 -0.29253 0.3218 -0.11781 -0.1889 0.15366 0.2549 0.23895 0.021368 0.21413 0.41318 0.58629 -0.049162 -0.086936 -0.36198 -0.45443 -0.098953 0.14928 -0.13829 -0.14674 0.12631 0.19519 0.28597 0.14063 -0.14994 -0.29713 -0.33876 0.21883 0.099009 -0.025231 -0.02852 -0.19219 -0.351 0.18934 0.22918 -0.62487 -0.24161 0.001069 0.56699 -0.16515 0.11308 -0.4586 0.23768 0.20692 -0.031371 0.3013 -0.39349 -0.5407 0.44358 -0.29034 0.17772 0.27265 0.21371 -0.15568 0.31994 0.22046 0.022042 0.27178 0.74042 0.067416 0.1726 0.48384 0.12405 -0.29033 0.26827 0.055517 -0.0024832 0.43718 -0.1902 -0.48915 -0.2579 -0.45418 0.12064 0.069058 0.099847 -0.39876 0.36977 0.31721 0.082823 0.046131 -0.27573 0.13562 -0.57821 0.35385 -0.21004 0.1014 0.10232 -0.042585 0.20901 0.0021068 -0.032942 0.093592 0.25932 -0.38807 0.13137 0.2219 -0.051681 0.49224 0.014408 0.15522 0.23424 0.2416 0.49362 -0.42782 -0.066681 -0.14726 -0.18191 0.38941 -0.16293 0.1847 0.13177 -0.10288 -0.22511 0.60924 -0.19198 -0.11471 0.10525 -0.27537 -0.053127 -0.048159 0.094667 0.4076 -0.17409 0.39346 -0.21988 0.051756 0.14627 0.39161 -0.109 0.20807 0.068519 -0.25867 -0.1907 -0.10656 -0.21454 -0.11358 0.71113 -0.028954 0.49864 0.09163 -0.50762 -0.26908 0.042153 -0.055497 0.20776 -0.11714 0.42033 0.23721 -0.15323 -0.054245 0.3278 0.044094 0.41257 -0.22843 0.38495 -0.31144 -0.042785 0.21231 -0.095033 0.28672 -0.16398 0.021741 -0.156 0.015125 0.32418 0.16197 0.048822 0.3154 0.14085 0.60915 -0.17371 0.10015 0.22489 -0.062886 -0.18271 0.12571 -0.13824 0.10341 -0.091058 0.072098 0.53224 0.037495 0.3308 0.2402 0.1099 -0.33584 -0.27649 0.061119 0.23815 0.066556 -0.19467 0.23865 -0.24718 -0.48318 -0.25805 0.15892 0.099446 0.2592 0.28465 0.089689 -0.31259 0.53097 -0.26383 0.27552 -0.11244 -0.011542 -0.43834 0.066604 0.30053 -0.08282 -0.22316 0.16732 0.15507 0.0023481 0.25658 0.13986 0.035342 -0.59911 -0.1278 -0.14909 -0.20435 0.030118 -0.022587 0.26694 0.11145 -0.3086 0.31463 0.50206 -0.26366 -0.5948 -0.24095 0.0072448 -0.055627 -0.13086 -0.037277 -0.20666 -0.16703 0.49526 0.047371 0.2732 -0.31238 0.24722 0.045129 0.24946 0.22027 -0.54534 0.20646
year -0.075012 0.047887 -0.069716 -0.10573 -0.067043 0.10377 -0.090317 0.039892 0.20817 0.10696 -0.083273 -0.075392 0.1373 0.24342 -0.0093494 0.13729 -0.05095 -0.2082 0.12235 0.084591 0.14071 -0.033652 -0.054524 0.0053113 -0.28957 0.16686 -0.048007 -0.1625 -0.0017766 -0.23045 -0.21344 0.2843 -0.07233 0.054427 -0.25325 0.26699 -0.040455 0.018335 -0.074745 -0.070593 0.084562 0.084104 -0.015648 -0.072104 0.025795 -0.34231 0.19695 0.034229 -0.071322 -0.025189 0.012254 -6.672E-4 -0.0099751 -0.11615 -0.2371 -0.265 -0.2061 0.035356 0.055964 -0.055561 -0.20607 -0.028536 -0.093079 -0.007772 0.10854 -0.073007 -0.010042 0.098624 0.073604 0.011436 0.018226 0.045896 0.21011 0.041162 -0.079254 -0.010588 -0.048291 -0.065444 -0.0046498 0.10426 -0.096537 -0.15102 -0.19339 0.082987 0.02431 0.17229 0.042547 0.20913 0.0061928 0.089937 0.10946 -0.1713 0.013642 0.25043 0.10101 0.01052 0.02004 -0.13083 -0.072224 -0.094235 0.2412 2.2065E-5 0.090411 0.006387 0.011778 -0.11317 0.1884 0.40174 0.1995 0.15493 0.049908 -0.066151 0.10684 0.10429 0.065227 0.059593 -0.10063 -0.017619 -0.053773 0.061772 -0.014797 -0.079327 -0.25768 0.26436 -0.21545 0.18245 -0.010922 -0.053768 -0.081491 0.27586 -0.047748 -0.068551 3.5628E-4 -0.093339 0.0079564 0.11349 0.24052 -0.01533 -0.029012 0.022957 0.046852 0.1048 0.031924 -0.11846 -0.054323 0.16227 0.10172 0.10991 0.34021 -0.016148 -0.16299 0.11581 -0.0060181 0.21607 -0.23539 -0.15623 -0.12293 0.11817 0.029898 0.086817 -0.21021 0.093711 -0.13005 0.073479 -0.068464 -0.075813 0.16902 -0.14642 -0.11235 -0.059469 0.046279 0.18586 -0.20279 0.066456 -0.24032 0.11594 0.015994 0.085549 0.05595 0.20389 -0.12922 -0.046428 -0.05797 0.12652 -0.054388 -0.024329 -0.24823 -0.20404 -0.22085 0.15539 0.10982 -0.059928 -0.16427 -0.047731 0.041189 -0.13028 -0.23899 -0.041593 -0.021504 -0.006121 0.057719 -0.028536 0.20652 -0.19054 0.032345 0.021754 0.11516 -0.070256 -0.002508 -0.11079 -0.18867 0.091068 0.106 -0.061462 0.037236 -0.14645 0.037997 -0.08545 0.13555 -0.017657 0.22296 -0.12147 -0.23127 0.11636 0.05811 0.1379 0.056847 -0.25445 0.14424 -0.12832 0.084339 -0.075649 0.14152 0.076208 0.20097 -0.27903 -0.2286 -0.10429 0.029552 0.0073914 -8.1076E-4 0.16715 -0.1355 0.05941 0.15855 -0.14542 0.0088505 0.27866 0.13266 0.079216 -0.038454 0.22921 -0.03405 0.014109 0.061475 -0.23434 0.0042086 -0.031837 -0.19547 -0.1373 -2.1485E-4 0.022597 0.25924 -0.089634 -0.095643 0.17491 0.03681 -0.15148 0.042776 0.17309 -0.0845 -0.052104 0.53956 -0.08689 0.16873 0.14458 -0.0016682 -0.08458 0.21633 0.16953 0.087373 0.097075 -0.07097 -0.12238 0.26548 -0.16367 0.13309 0.14031 0.0032774 0.047735 0.11433 -0.17648 0.036629 -0.025638 6.0313E-4 -0.12006 0.2819 0.077068 -0.1029 -0.17363
psychiatry -0.14813 0.026471 0.0058883 -0.17194 -0.064754 -0.12714 -0.040252 -0.0018256 0.5466 0.2009 0.52118 2.4007E-5 -0.46913 0.41836 -0.12157 0.068344 0.031053 0.23702 0.12494 0.426 0.33289 0.41745 -0.0015188 -0.067008 -0.094309 -0.24785 -0.065553 -0.079454 -0.01472 0.44024 -0.63524 -0.37446 0.07769 0.35009 -0.14803 0.2796 0.18949 0.040787 -0.35595 0.072247 0.19387 -0.2975 0.56074 -0.037326 0.33055 -0.23039 0.37426 -0.32875 -0.10669 0.19344 -0.079477 -0.17563 0.20442 -0.55625 -0.0016011 -0.15804 -0.040216 0.14383 0.018062 -0.25683 0.31419 -0.46735 -0.3031 -0.096387 -0.39482 0.043604 -0.57553 -0.034273 -0.19799 -0.0020928 -0.057958 0.032904 -0.045427 0.31125 0.18976 -0.081741 0.28895 -0.12845 -0.13622 -0.1983 0.46816 0.32694 -0.13018 -0.46801 -0.33863 -0.039229 0.36644 -0.1925 0.18223 -0.20327 0.20994 0.081395 -0.051734 0.11733 -0.15772 -0.14188 -0.068275 0.37398 -0.15239 0.10925 -0.50357 0.26532 -0.2241 -0.016425 -0.071507 -0.070211 -0.17035 0.080748 0.62569 -0.2391 -0.23154 -0.31015 -0.038259 0.19971 0.35349 0.24124 0.18958 -0.045365 0.0074728 0.2205 0.34634 0.026059 -0.16195 -0.061939 2.2648E-4 0.50472 -0.48664 0.023681 -0.64189 0.12934 -0.19468 0.12336 -0.4653 -0.028172 0.065579 0.54539 -0.37418 0.33509 -0.13539 -0.048792 -0.25595 -0.058807 0.057553 0.2274 -0.10515 0.24429 0.41091 -0.16274 0.17087 0.053111 -0.40284 -0.55335 0.10836 -0.15403 0.27799 -0.20865 -0.21034 -0.15753 -0.19678 0.25442 0.17021 0.0015828 0.064178 -0.63719 0.043239 -0.076156 -0.15677 -0.26054 -0.23524 -0.097669 -0.15942 0.1675 0.14293 0.030869 0.047084 0.040171 -0.21587 0.22857 0.15811 -0.3392 -0.34296 -0.35857 0.14491 0.38899 0.046715 -0.27868 -0.032129 -0.054694 -0.09523 -0.073592 -0.21968 -0.20008 -0.115 -0.42657 -0.0024667 0.014345 0.06548 -0.51206 -0.082858 -0.11174 0.51741 -0.0055988 0.15072 -0.13537 0.39042 -0.223 -0.19172 -0.19705 -0.44457 -0.071476 0.26477 0.19406 -0.14922 -0.10007 -0.30084 0.48538 -0.043499 0.12617 -0.16223 0.26667 -0.025424 0.092934 0.27462 -0.029974 0.13024 0.12468 0.19089 -0.29425 -0.04383 -0.26005 -0.10303 -0.038042 0.073619 -0.45158 -0.18727 -0.24105 0.6804 0.06 0.039569 -0.080603 -0.37678 -0.14448 0.22191 -0.12683 0.22474 0.11323 -0.36483 -0.24773 -0.22616 0.30943 -0.070453 0.35144 -0.38243 0.18135 -0.30104 -0.064744 -0.061867 -0.45861 0.14797 -0.23214 -0.17028 0.31289 0.22394 -0.050152 0.058699 0.26136 0.17362 -0.2475 0.021491 0.72599 0.064604 -0.20082 0.276 0.28855 -0.048724 -0.2024 0.046252 0.36841 0.3914 0.37031 0.095185 0.17305 -0.068235 -0.39458 -0.15178 0.021755 -0.27923 -0.19205 -0.015391 0.0055134 0.2676 0.37534 0.48892 0.41448 -0.16098 -0.28907 -0.035104 0.11082 0.6371 0.23407
asylum -0.22971 0.070421 0.16871 -0.51816 -0.22416 -0.13775 -0.11223 0.45574 0.55622 0.60733 0.14026 -0.030643 -0.21723 0.4211 0.201 0.097065 -0.24762 -0.33336 0.28839 0.35352 0.34613 -0.1362 0.10388 -0.25111 -0.29347 0.20165 0.24387 -0.17571 0.37824 0.032865 -0.087352 0.22024 0.032312 -0.2622 -0.11002 -0.22037 -0.23826 0.26639 -0.1841 -0.2115 -0.22395 -0.25995 -0.31191 -0.085718 0.15392 -0.45082 0.14917 0.29018 -0.15992 0.051173 0.01243 -0.60141 -0.15526 -0.070505 -0.23623 -0.55374 -0.33511 -0.22494 -0.22589 0.091462 0.43579 0.23094 -0.26919 0.41466 -0.12953 0.37351 -0.60988 0.039687 -0.080707 0.26538 0.18981 0.63859 0.19798 0.049756 0.64572 -0.13539 -0.22668 0.4404 0.069345 -0.11914 0.59792 -0.045555 -0.26699 -0.12889 -0.0094881 0.10504 -0.17576 0.078159 -0.12625 -0.36354 0.002201 -0.29853 0.064517 0.36824 0.043207 0.10499 -0.16355 0.04694 -0.33316 -0.095318 -0.34782 0.015464 0.19412 0.092821 -0.0032687 -0.20806 0.030072 -0.36276 -0.11998 -0.054479 0.20692 -0.23536 -0.11316 0.15449 0.50935 -0.20711 -0.038532 0.13898 0.12202 0.3127 -0.070587 0.14117 0.13009 -0.082038 -0.24383 0.2728 0.20078 -0.21426 -0.48715 0.19567 0.17747 -0.61931 -0.037026 -0.0052666 0.4019 -0.27346 0.16677 -0.090933 0.22471 -0.041734 0.076069 0.57894 -0.076807 -0.20814 -0.084731 -0.021972 0.26937 0.082035 -0.24308 -0.21955 -0.092473 -0.45331 -0.12461 -0.060483 -0.44121 -0.2893 0.37056 -0.46263 0.001954 0.1931 -0.22325 0.29999 0.12439 0.085672 0.17412 0.61004 -0.1241 -0.43231 0.038479 -0.10138 0.082926 0.15677 0.14188 0.1877 -0.5789 -0.56256 0.26527 0.38591 -0.17432 -0.18805 -0.032799 0.036529 -0.57988 0.18841 -0.63101 0.052208 -4.0835E-4 -0.36784 0.0074022 0.033769 -0.37192 -0.18607 -0.5279 0.087323 -0.34447 -0.16889 0.1653 -0.54796 0.53531 -0.01015 0.39366 -0.34153 -0.090971 -0.082302 0.19807 -0.042941 0.44272 0.37842 0.069564 0.14013 -0.69755 0.36403 0.13213 -0.14818 -0.21627 0.079268 -0.10989 -0.028642 -0.77098 0.22835 0.045624 0.060001 -0.22654 0.1416 -0.013381 -0.080397 -0.10524 0.010611 0.23706 -0.25126 0.081701 -0.096254 0.17758 -0.18179 -0.17405 0.30114 -0.36977 -0.43926 0.14392 0.38014 -0.16333 -0.023507 -0.011145 0.24867 -0.010566 -0.11011 0.2609 0.078744 -0.2228 0.15716 0.0033254 0.027199 0.0060633 -0.24046 -0.30922 0.33849 0.11544 -0.24074 -0.034221 -0.11108 0.53572 0.37856 -0.12253 0.36605 0.22828 0.469 -0.18391 0.16306 -0.45417 -0.26151 0.17912 -0.10756 0.066375 -0.24395 -0.10235 -0.30703 0.047123 0.05543 -0.039518 -0.31964 0.47211 0.17421 -0.12261 0.068645 0.15324 -0.21741 -0.0055521 -0.27004 -0.016392 -0.054088 0.24404 -0.037884 0.027995 0.055828 -0.28823 -0.61724 -0.22778 -0.044913 0.30733 -0.091384
manslaughter -0.39889 0.27723 -0.17562 -0.56135 -0.097835 0.17735 -0.48076 -0.42055 0.4696 0.5514 -0.015893 -0.15008 -0.3742 0.27785 0.58028 0.73001 -0.68253 -0.38498 0.057995 0.43234 0.55278 0.42573 -0.21073 -0.30417 -0.1497 -0.61079 -0.097674 -0.30605 -0.15391 0.1062 0.18544 0.14655 -0.13211 0.22465 -0.51103 0.2592 -0.12732 0.28621 -0.39858 0.093951 0.087954 -0.33719 -0.034387 -0.44529 0.14346 -0.82833 0.57639 0.093263 0.22307 0.052058 -0.11269 -0.26093 0.13568 -0.054289 0.18992 -0.14669 -0.36294 0.084261 0.44627 -0.059444 -0.032442 0.10738 -0.14616 0.047267 -0.12425 0.070259 -0.54342 -0.39252 -0.44846 -0.082969 0.43083 -0.081296 -0.095652 0.33338 0.079486 -0.075933 0.30052 0.064802 0.031701 -0.12729 0.054153 0.13231 -0.066551 -0.10038 -0.08622 0.054114 -0.15969 -0.32317 0.18314 0.20676 -0.24099 -0.15088 -0.10908 -0.12562 0.041201 -0.082211 -0.23766 0.12835 0.045009 0.37923 -0.078182 0.30919 -0.44825 0.2104 -0.061898 0.031567 -0.36189 0.19723 0.27474 -0.14328 0.29019 -0.22973 -0.16944 0.26911 0.14779 -0.023436 0.067254 -0.21859 -0.010536 -0.1121 0.14897 -0.25298 0.022368 0.20679 -0.21261 0.053162 -0.34592 -0.099824 -0.21893 0.31206 0.10869 0.1817 -0.32166 -0.18359 0.065021 -0.086826 0.11417 -0.23675 0.41026 -0.10846 -0.14735 -0.033216 -0.0095927 -6.392E-4 -0.093586 0.20216 0.27535 -0.3005 0.070353 0.24237 -0.1998 -0.016595 0.28374 0.41156 0.1584 -0.54152 -0.29885 -0.25203 -0.22447 0.15607 0.37167 0.30008 0.36338 0.34647 -0.33025 0.14595 -0.28194 -0.16836 0.19956 0.10824 -0.15829 0.086596 0.069288 0.25983 0.098288 0.36983 -0.15577 -0.1855 0.18989 -0.25341 -0.12812 -0.25849 -0.43022 0.20578 -0.15051 -0.18275 -0.11773 -0.020833 -0.22209 -0.46683 0.16333 -0.12369 -0.47011 -0.33559 0.181 0.20521 -0.28446 -0.47666 0.55804 -0.50961 0.57972 -0.12862 0.014725 0.0019988 0.1142 -0.04308 0.11422 -0.058541 0.045775 0.22247 0.33807 0.14413 -0.20817 -0.012696 -0.19084 -0.22972 -0.19671 0.084767 0.69127 -0.13376 0.017521 -0.086562 -0.22071 0.0076422 -0.54575 -0.25562 0.033111 -0.2469 -0.38109 -0.16588 0.04195 0.22054 0.017672 0.097257 0.29663 0.22393 0.28631 -0.14605 0.29168 0.13811 0.12179 -0.2433 -0.10641 -0.013463 0.11769 0.026595 0.28539 0.3857 0.20527 0.25118 -0.15159 0.54605 0.027461 0.2129 -0.2482 -0.14748 -0.12265 0.050386 0.13718 -0.031712 -0.55217 -0.084589 0.22388 0.28075 0.53312 -0.095687 0.29933 -0.15673 0.10592 -0.16806 0.55167 -0.20897 -0.10401 0.012561 -0.069839 -0.34751 -0.3134 0.30618 0.15866 -0.59645 0.2265 0.31078 -0.087823 -0.24921 -0.14156 0.20593 0.3275 -0.027876 0.37179 0.16266 -0.40233 0.12482 0.46213 -0.061084 -0.0026997 0.16607 0.04532 -0.16759 0.065144 0.05899
music 0.063004 0.11901 -0.20135 -0.17693 -0.17291 0.015401 -0.16738 0.19924 -0.082675 -0.027976 0.23205 -0.78759 0.11729 -0.043109 -0.30405 -0.090634 0.21795 -0.031159 0.30401 0.10839 -0.10597 -0.13213 0.16258 0.037373 0.088204 -0.22362 -0.10658 -0.20667 -0.54315 0.033194 -0.16348 0.1557 0.0019586 -0.056627 -0.40169 0.12934 -0.22842 -0.03269 -0.29369 0.11232 0.1084 0.14793 0.15058 -0.0367 0.14428 -0.26552 0.11304 0.063701 0.31909 0.32301 0.29282 -0.11392 -0.08919 -0.033144 -0.026486 -0.47835 0.13871 -0.086854 -0.094425 0.40009 0.32572 -0.22584 0.036699 0.039602 0.062384 0.34011 0.084354 0.25326 0.012248 -0.65639 0.12656 -0.049553 -0.023742 0.081476 -0.30918 0.3012 0.21721 0.3045 0.0013852 -0.10524 0.22521 0.23136 0.0035278 0.19574 -0.12472 -0.050885 -0.028667 0.07891 -0.11226 0.076297 -0.012484 0.024628 0.12604 0.33257 0.066388 -0.033446 0.091495 -0.08869 0.088009 -0.27925 -0.40214 0.10535 -0.26302 -0.029689 0.27259 0.28069 -0.1365 0.18392 0.19069 0.14022 0.041231 0.17265 -0.16926 0.10091 -0.26325 0.051046 0.038928 0.17028 0.13023 0.24876 0.15006 0.079467 -0.19225 -0.067785 -0.337 0.23685 -0.26008 -0.036658 -0.2045 -0.027229 -0.021208 -0.034776 -0.33448 -0.24324 0.24149 0.0403 -0.026122 0.0061182 -0.036198 0.148 -0.20291 0.4423 -0.0071271 0.27218 -0.28817 -0.029244 -0.021469 -0.20158 0.1123 -0.040451 -0.076763 0.15231 -0.21482 0.11611 -0.055532 -0.26391 -0.031273 0.045265 0.071949 -0.16728 -0.0032052 0.14971 -0.15348 -0.10627 -0.080881 -0.058508 0.055584 -0.19691 -0.41918 0.0046954 0.18192 -0.042508 0.032906 -0.16512 0.014661 -0.11665 0.043183 0.26233 -0.1571 0.052755 -0.12122 -0.08332 0.21008 -0.08228 -0.091171 -0.19665 -0.059138 -0.22797 0.16291 0.29011 -0.23983 0.092259 -0.065098 -0.13794 -0.25903 -0.33949 -0.045702 0.16328 -0.042408 0.021904 0.13486 0.23505 -0.032954 0.16243 0.37221 -0.013247 -0.0084212 0.051561 -0.33161 -0.13626 0.076718 -0.16234 -0.087492 -0.15079 -0.14613 -0.065555 -0.20922 -0.3342 0.26331 0.0051981 0.099721 -0.11884 -0.17815 0.042584 -0.14399 -0.043407 -0.041414 0.24134 0.30545 -0.0042164 -0.16811 0.088792 -0.0043709 -0.027089 -0.46337 0.45945 0.0045592 -0.1854 0.28506 -0.04738 -0.10044 -0.063265 -0.06555 -0.10263 0.14594 0.23658 0.18826 -0.094842 0.16196 0.55313 0.24978 0.54817 -0.15261 -0.40544 -0.34266 0.056162 0.080142 -0.063087 0.11671 -0.032474 -0.15684 0.023306 -0.0019876 0.19796 -0.042332 0.31439 0.33959 -0.19786 -0.090535 0.36141 0.25398 -0.37285 0.2157 -0.028483 -0.071521 -0.54303 -0.10624 0.045369 -0.087481 -0.38507 0.083849 0.020694 0.1257 -0.052149 -0.19138 0.044941 0.039769 0.17967 0.17859 0.20264 0.035674 0.070489 0.25777 0.27428 -0.17676 -0.17157 -0.1501 -0.098148 0.16647 0.1648
record 0.037371 0.31531 -0.0047218 -0.05092 -0.0096516 0.11523 -0.43623 -0.09545 0.26977 0.30624 0.1135 -0.40346 -0.14079 0.13017 -0.17428 0.065408 0.087415 -0.054119 0.12274 0.077666 -0.042554 0.082005 -0.17969 0.083544 -0.23617 -0.11304 0.19862 -0.021658 -0.13008 -0.086016 -0.10249 -0.048963 -0.26678 0.027895 -0.028261 0.37328 -0.19925 -0.22073 -0.37705 -0.039843 -0.2071 0.42239 0.0044818 0.23795 0.12432 -0.19782 0.09084 0.17182 0.095494 -0.20494 -0.033492 0.04391 -0.10663 -0.23577 -0.34552 0.055388 0.16251 0.076983 0.26889 0.032522 0.072131 0.064678 0.11425 -0.26263 -0.10988 0.32502 0.062011 0.35854 0.025251 0.12751 -0.028928 0.18588 -0.18661 0.19291 0.11978 0.036566 0.026696 -0.25624 -0.027248 0.23569 0.1462 0.2434 0.068686 0.0084299 -0.072194 -0.069054 0.088314 0.3545 -0.10899 -0.09511 -0.13009 0.21187 -0.02249 0.3623 0.087067 0.13396 0.41657 -0.021567 0.018672 -0.019749 -0.087441 0.11953 0.19012 -0.3196 -0.06743 0.025563 0.025392 0.13511 0.051329 -0.049702 0.08536 0.03406 -0.10316 0.2853 0.15969 0.11827 -0.093491 0.13351 0.084672 0.045559 0.066223 0.0019349 0.057279 0.2584 0.025883 0.1909 -0.29678 0.11951 0.0057871 0.1814 -0.020924 -0.22673 0.24775 -0.070033 0.087249 0.042627 0.30496 0.21606 0.20171 -0.17916 -0.32718 0.28796 0.035723 0.19402 -0.31879 -0.15101 -0.058234 0.23594 0.063156 0.19303 0.11533 0.29601 -0.40098 0.35452 -0.18418 0.069392 -0.10478 0.29943 -0.13732 -0.046709 -0.51878 -0.23071 -0.30465 -0.0077068 -0.16649 -0.032381 -0.0063185 -0.048228 -0.0049336 0.2191 -0.010267 -0.32623 -0.062548 0.362 0.010028 -0.17521 -0.21971 0.084774 -0.0024741 -0.39982 -0.057445 -0.12744 -0.10868 0.32179 0.017042 -0.0025313 -0.056456 -0.049743 -0.096969 -0.046223 0.15442 0.21046 0.058609 0.017648 0.026688 -0.29417 -0.1106 0.17466 -0.15873 -0.0070124 -0.060412 0.034343 0.0088708 -0.15386 0.28032 -0.15847 -0.015628 0.0085541 -0.21798 -0.010659 -0.14869 0.3268 0.0017143 0.0056966 0.25318 -0.20305 0.016889 0.12829 0.13826 -0.30046 0.096286 -0.13073 -0.15149 -0.099639 -0.19179 0.053417 0.14269 -0.02264 -0.0019773 -0.15872 -0.19855 0.11948 0.18898 0.15304 0.040514 -0.10469 0.025218 -0.19662 0.014184 0.018032 0.12992 -0.22145 -0.14495 0.079472 0.14201 -0.046889 0.25272 0.39334 0.062573 0.33235 0.090187 0.20335 0.0048871 0.0015774 0.24159 -0.15667 0.18474 -0.23653 -0.07912 -0.17477 -0.012863 0.078498 0.20263 0.019486 -0.44527 0.23545 0.0025688 -0.082351 -0.46531 0.24335 0.27704 -0.22469 0.24251 -0.26513 0.023455 0.095291 0.10749 -0.07617 -0.26824 -0.051636 -0.053833 -0.36045 -0.096671 0.029999 0.17194 -0.27635 0.26346 0.065779 -0.063205 0.30117 0.050892 0.22244 0.020775 0.0057347 -0.10237 -0.19549 0.30493 0.044686 0.076044 -0.23362
energy 0.031283 -0.18898 0.13754 0.054285 -0.10101 0.19416 -0.10358 -0.031419 0.28359 0.20903 0.027622 -0.10617 -0.081651 -0.39654 -0.060529 -0.031108 0.3174 -0.089076 -0.29411 -0.056186 -0.29349 -0.088255 -0.096254 0.21854 0.099499 -0.0033665 0.25576 -0.024904 0.12583 0.27643 0.12441 -0.021033 0.18341 -0.2183 -0.044209 0.081007 -0.1015 -0.026315 -0.10419 0.037313 0.10043 -0.21421 -0.056426 -0.35029 0.16102 -0.006454 0.082123 -0.21389 -0.16307 -0.22353 -0.51256 -0.049106 0.35708 -0.14223 -0.23132 -0.084988 0.070628 -0.22177 -0.0065743 0.12074 -0.083592 -0.20164 -0.08012 -0.061179 -0.063724 0.027562 -0.2175 0.13434 0.083835 -0.051923 -0.011391 -0.27809 -0.13291 0.39577 -0.24844 0.22589 -0.25038 -0.0092326 0.2979 -0.44257 0.24917 0.18645 0.23522 -0.3033 -0.0064793 -0.33008 -0.004097 0.079314 -0.3291 0.031971 0.18207 -0.083995 0.042331 0.060313 0.060107 0.064498 -0.21479 -0.054236 0.024588 -0.25271 -0.17812 0.047366 -0.29391 0.084897 0.31687 0.23154 -0.1663 -0.041695 0.060397 0.20746 0.15539 -0.3331 0.020434 0.039908 -0.098075 0.1144 -0.19278 0.068554 -0.25323 0.14809 -0.048907 0.081166 -0.42905 0.1031 0.1298 0.22436 0.0060273 -0.07757 -0.084052 0.16148 0.019847 -0.17475 -0.13853 0.23428 0.2766 -0.1658 0.13515 0.21861 -0.26643 0.081603 0.018764 0.29801 -0.032077 -0.083211 -0.123 0.087592 0.50954 0.34406 0.10046 -0.11915 0.0085074 0.056119 0.1529 0.052942 0.16438 0.029241 0.049516 0.20353 -0.13581 -0.16837 -0.40482 0.053547 0.24347 -0.1241 0.14093 -0.14619 0.080301 0.032721 -0.23417 0.089744 0.0047036 0.38018 -0.025743 -0.27937 -0.35485 -0.31327 -0.45493 -0.17888 -0.17138 -0.21935 -0.021777 0.046697 0.18074 0.17006 0.06099 -0.013869 -0.051512 -0.19876 0.41185 0.084556 -0.15789 0.21419 -0.070895 -0.096873 -0.13942 0.010372 -0.068654 0.37254 -0.13638 0.079643 0.085405 0.017327 0.39577 0.007874 5.9553E-4 0.16846 0.034865 -0.10724 -0.14882 -0.10893 0.031353 0.50709 -0.04038 -0.10031 0.046063 0.099315 0.19762 -0.13621 0.33298 -0.12236 -0.1447 -0.056593 -0.037097 0.22632 -0.24054 -0.12565 -0.008734 0.2244 -0.1616 -0.34453 0.098799 0.085406 0.18221 0.38048 -0.037489 -0.15749 0.2338 -0.0095663 0.019018 0.52554 -0.064505 -0.31726 -0.0035497 0.15915 0.23281 -0.25631 -0.024534 0.19572 0.29134 -0.004698 -0.14882 -0.032583 -0.0093339 0.11118 0.071589 -0.34931 0.44433 -0.27047 -0.23457 -0.33149 -0.18677 0.085487 0.27962 -0.01928 -0.17595 0.21998 0.026794 0.010337 -0.093609 0.16813 0.23448 -0.36142 0.53021 0.41184 -0.36335 0.0049772 0.10217 -0.36039 -0.031683 -0.15898 0.41499 -0.24114 -0.11106 0.0071474 0.20087 -0.12124 -0.16313 0.026989 -0.21925 -0.19602 -0.014629 0.0065115 0.39801 0.079891 0.20535 -0.12415 0.012709 0.3011 -0.095627 0.080401
announcement 0.036478 -0.19324 0.11728 -0.20755 0.010076 -0.027812 -0.1589 -0.25531 0.25327 0.30853 0.26826 -0.13084 -0.25614 0.046609 0.31359 0.026091 0.25457 0.4443 0.016857 -0.226 0.071186 -0.26099 -0.058197 0.059366 0.2819 -0.21432 -0.067993 0.17941 -0.007879 -0.060294 -0.081858 0.40844 0.047062 -0.0090186 0.07776 -0.053846 -0.012065 0.083846 -0.12928 0.40349 -0.25172 0.019395 -0.16282 -0.11808 -0.031188 -0.14724 0.034934 -0.036466 0.33949 -0.09815 0.111 0.077621 0.19059 -0.091005 0.023542 0.056682 -0.14157 0.1064 0.18797 0.14856 -0.071711 -0.14562 -0.21017 -0.05794 0.085288 -0.21452 -0.068954 -0.15906 0.098181 -0.11143 0.051319 0.19479 0.16703 0.17753 -0.014592 0.12183 -0.21226 0.065969 0.24685 -0.04984 -0.084877 0.2622 -0.35033 -0.063437 0.31092 0.095392 -0.27905 0.22707 -0.20457 0.15979 0.067527 -0.17555 -0.027753 0.036789 -0.056382 -0.015306 0.22615 -0.30366 -0.27385 -0.24728 0.12886 0.0047775 -0.19627 -0.12789 0.073176 0.15645 0.079023 0.69764 0.0022724 0.15427 0.1278 0.0019104 0.13449 0.20989 -0.02515 0.15629 -0.26785 0.027646 0.13497 0.20404 -0.10684 -0.14073 -0.17404 0.052984 -0.25912 0.11037 -0.16587 0.13099 0.28047 0.066544 -0.16588 -0.042522 4.0269E-4 -0.22252 -0.027596 -0.0033794 0.33849 -0.068636 0.040513 0.18302 -0.021938 0.18627 0.226 -0.31855 -0.032006 0.18807 -0.021669 -0.043839 0.014494 -0.20393 -0.023804 0.12456 0.21211 0.33591 -0.10044 0.094416 -0.092862 0.047079 0.15611 -0.085255 -0.15199 0.058757 0.057005 -0.080952 -0.12131 0.04215 0.038436 0.33972 -0.060226 -0.18946 0.27114 0.12798 0.052577 0.23221 -0.099239 -0.1897 -0.088508 0.15332 -0.027799 0.027646 -0.11215 -0.068344 -0.28385 -0.014509 -0.19594 -0.15118 -0.12243 -0.10122 -0.30225 -0.13514 -0.12964 -0.002776 -0.14658 -0.17972 0.012902 -0.21749 -0.0075135 0.099357 -0.26851 0.055376 0.33929 -0.098371 -0.014604 -0.1571 0.21649 -0.34408 -0.12617 -0.27972 0.0044002 -0.24361 -0.088452 -0.23144 -0.10249 -0.1291 0.21992 -0.042199 0.054286 0.0055696 0.038441 -0.24533 0.21573 -0.036471 0.010773 0.19076 0.19134 -0.044335 0.10651 -0.12983 0.28883 -0.03696 0.31213 -0.45234 0.36112 -0.1081 -0.051814 -0.052445 0.084448 -0.14927 0.12211 0.40217 0.054631 -0.20462 -0.01223 0.042285 -0.0462 -0.19271 0.29845 0.21343 0.0025872 -0.029534 -0.087394 0.34 -0.075208 0.06756 -0.0043743 0.2468 -0.10083 -0.24277 0.018268 0.033697 0.12362 0.28926 0.084513 0.099692 -0.15657 0.23421 0.11069 -0.017427 -0.043933 0.06705 -0.017586 -0.068094 0.083523 -0.12242 0.061412 0.075933 0.22371 -0.24297 0.057728 0.028447 0.16514 -0.07319 0.15466 -0.4561 0.28932 -0.18424 -0.052454 -0.39527 -0.31252 0.030559 -0.12748 0.082643 0.056612 -0.19071 0.18483 0.10222 -0.045976 -0.28975 -0.086893 0.15903
mile 0.2553 -0.13903 -0.19823 -0.51156 0.38237 -0.047936 0.063544 0.19907 0.1474 0.39693 -0.24994 -0.39471 -0.022114 0.22732 0.093952 0.55657 -0.45109 -0.32638 0.056653 0.17599 0.4481 -0.089825 -0.3533 0.542 -0.17682 -0.19678 -0.21597 -0.10179 0.2381 -0.047715 -0.12229 0.19157 -0.059328 -0.11074 -0.1026 -0.12404 -0.061302 -0.52198 -0.06059 -0.22263 0.058919 -0.17817 0.15123 0.080275 0.13972 -0.27155 0.057385 -0.2918 -0.23072 0.083181 0.01391 -0.047438 -0.074669 0.06724 -0.31073 0.011936 -0.077173 -0.24856 0.24139 0.26975 -0.25734 -0.021492 0.24076 -0.36568 0.20477 -0.17581 -0.31128 0.095515 -0.26779 0.32351 0.16435 0.077595 0.14187 0.22337 0.041637 -0.20064 -0.14436 -0.08231 -0.022943 -0.018127 0.15635 0.069323 0.34565 -0.11154 -0.012974 -4.2721E-4 -0.31244 0.15422 -0.21588 -0.019158 -0.1336 -0.039079 0.33337 0.26766 -0.065197 0.024924 -0.067407 -0.066124 0.062761 -0.071723 -0.2362 0.6408 -0.11745 0.1715 0.15149 0.18789 -4.2747E-4 0.27828 -0.056636 -0.1063 0.063228 -0.11322 0.083575 0.24561 0.022587 -0.24505 -0.21324 0.22276 0.026112 0.081752 -0.12094 -0.3322 0.18821 -0.076444 -0.36598 0.29067 -0.12153 -0.29119 0.27351 -0.094972 -0.23058 0.28875 0.13712 0.095965 -0.16052 0.44554 0.25163 -0.062526 0.49237 0.043349 -0.012158 0.070511 -0.28174 -0.20021 0.30166 -0.12474 0.078938 0.026435 -0.046341 0.090154 0.0084004 0.11498 -0.15393 -0.11045 -0.15522 0.11908 -0.030602 0.13247 -0.10895 0.34931 -0.12503 0.25533 0.17848 -0.062826 0.3275 -0.0562 -0.028881 0.13552 -0.021254 0.058912 0.22908 -0.13397 -0.27904 -0.037988 0.37235 -0.090563 0.043158 0.0025191 0.031349 -0.30249 -0.067267 0.29257 -7.0914E-4 0.050509 -0.16376 0.036603 -0.033974 0.01253 0.026889 0.41915 0.15121 0.30778 -0.098994 -0.14861 0.21096 0.36686 -0.040051 0.087721 0.47699 0.015273 0.094017 0.13185 -0.153 0.15209 0.15904 -0.033051 0.39243 0.03724 -0.14173 0.15661 -0.010358 0.038413 0.15756 -0.044962 -0.062301 0.26421 0.14494 -0.2286 0.30133 -0.0060305 0.081776 -0.18289 -0.019956 -0.16521 -0.16462 -0.15724 -0.042225 0.31564 0.19976 -0.077889 0.010383 -0.22149 -0.071067 0.42187 0.22848 -0.21848 -0.12567 -0.088956 0.29833 -0.39941 -0.0691 -0.21819 0.034039 0.25666 0.26822 -0.42045 -0.088069 -0.13245 -0.026185 0.20433 0.20201 0.30867 -0.53394 -0.02877 0.17315 0.029246 0.30359 -0.22405 0.26972 0.18122 -0.068578 0.023049 0.28351 0.17902 -0.14545 0.13619 0.34976 -0.1302 -0.28986 0.16669 0.028934 -0.33867 0.65918 -0.31879 0.17536 -0.14735 0.063828 0.17985 0.02712 0.079205 0.15906 -0.13494 0.18897 -0.29561 0.34267 -0.13847 -0.1315 -0.23436 0.10593 0.048454 0.062927 -0.37264 -0.069257 -0.0145 0.24689 0.009452 -0.2167 0.18228 0.098384 -0.29758
airport 0.23522 0.045191 -0.34972 -0.36764 -0.16731 -0.075029 -0.39159 0.089893 0.46943 0.29533 0.23753 -0.21412 -0.18018 -0.30374 -0.083107 0.45763 -0.19709 -0.19997 0.12736 -0.02813 0.20277 -0.0025675 -0.3365 -0.042536 0.0056947 -0.21493 -0.049834 0.43736 0.12128 -0.05714 -0.16922 0.043893 -0.013356 0.18762 -0.25617 -0.14588 -0.10828 0.28922 0.11451 0.014634 -0.033346 -0.32159 0.077157 -0.0050886 0.61149 -0.1948 -0.13866 0.38778 0.1708 0.13929 -0.046848 -0.22321 0.038326 -0.1706 -0.47052 0.02912 -0.11433 0.14242 0.012934 0.37911 -0.20627 0.23344 3.7529E-4 0.12048 -0.10921 -0.022092 -0.29539 -0.10702 -0.43786 -0.17572 0.13239 -0.26652 0.14314 0.4294 -0.20287 -0.18815 -0.13269 -0.18847 0.18512 0.061154 0.51019 0.12354 -0.24392 -0.16896 0.44238 0.36968 -0.26025 -0.16568 -0.039477 0.17825 -0.23996 0.010341 0.10179 0.076738 0.21791 0.24766 -0.081105 0.081019 -0.12284 -0.17612 0.046638 -0.42943 -0.11474 0.26581 -0.12422 0.13637 0.11815 0.51222 0.25021 0.2528 0.2287 -0.19911 -0.095966 0.18658 -0.21803 -0.38692 -0.034699 -0.17333 -0.020015 0.17381 0.23422 -0.097803 0.4015 0.011124 -0.21762 -0.16588 -0.0072631 -0.065294 0.14701 -0.1207 -0.30236 -0.087359 -0.18673 0.16547 0.06698 0.15485 0.081492 0.06366 0.30342 0.019915 0.043289 0.23078 0.10174 -0.22143 -0.025675 0.054934 0.31132 -0.10261 -0.57167 0.20302 -0.10244 -0.21256 -0.17151 0.19083 -0.075906 0.097554 -0.022814 -0.1787 -0.035711 0.051208 -0.047265 0.068805 0.032616 -0.12995 -0.019831 -0.11101 0.25752 -0.3527 0.15591 -0.061892 0.12981 0.13264 0.062341 0.21769 -0.20805 -0.062535 -0.055782 0.11949 0.12741 -0.15134 -0.13866 0.067246 -0.048374 -0.47338 0.0017338 -0.13479 -0.022912 0.082227 0.050538 0.050254 0.060296 -0.22591 -0.14245 0.11927 -0.28944 -0.1637 0.1813 -0.18521 0.32363 0.25582 0.1818 -0.027832 0.014777 -0.061577 0.1977 0.24644 0.19323 0.18576 -0.050256 0.47811 0.14694 0.12484 0.025451 -0.19656 -0.16169 0.24004 0.045476 -0.16176 -0.12997 0.042751 0.31768 0.17778 0.049423 0.29879 0.15823 0.17944 -0.18333 0.16428 0.096176 -0.077403 0.17174 -0.66098 -0.34033 0.28448 -0.195 -0.28217 -0.1328 0.14799 -0.084214 0.33372 -0.19903 -0.18595 -0.089522 -0.02678 0.12543 -0.16849 -0.0031381 -0.14949 0.08424 -0.12636 0.13442 0.286 -0.035913 0.26081 -0.099917 -0.1825 0.11753 -0.11081 0.29271 -0.04831 -0.094136 -0.21434 0.056812 0.42972 -0.17711 0.48673 0.18134 0.34412 -0.28905 0.13865 -0.107 0.080942 0.096664 0.028588 -0.1583 0.26315 -0.13703 0.17265 0.043278 7.778E-4 0.30069 -0.088874 0.21577 -0.48635 -0.037763 -0.2164 -0.44788 -0.23461 -0.13113 0.075238 0.37354 -0.058375 -0.17505 -0.0077691 -0.10692 -0.12502 -0.21368 0.20761 -0.068683 0.1059
population -0.19892 -0.03246 0.13254 -0.086417 -0.013688 0.016851 0.051978 0.31084 -0.49154 -0.0041435 0.066531 0.0099029 7.8174E-5 0.032306 -0.26434 0.45071 -0.25437 -0.040346 -0.18151 -0.082526 0.10253 0.16944 0.071338 -0.037975 -0.0054346 -0.10606 -0.25794 0.13095 0.21479 -0.045276 -0.049362 0.086528 -0.24519 -0.21657 -0.12191 0.25522 -0.14024 0.43281 -0.18943 -0.075086 0.1909 0.048486 0.23288 -0.044982 0.016445 -0.10371 0.48619 -0.11377 -0.10753 0.29407 -0.2967 -0.4225 -0.22841 0.23198 -0.26585 -0.35063 0.074989 -0.23813 0.38601 -0.18915 0.1087 -0.045327 -0.085238 -0.10037 0.082152 0.019957 -0.38071 0.30091 -0.075294 0.2538 -0.023602 -0.068373 -0.16721 -0.0059351 0.20386 -0.23633 0.10101 -0.14304 -0.13671 -0.27521 0.13647 -0.23465 0.28766 0.091647 0.16977 -0.073084 -0.094933 0.19592 -0.24908 -0.11873 0.049273 0.45125 -0.0018201 0.13171 -0.13986 -0.0060294 -0.17204 0.23605 -0.17948 -0.34542 0.035716 -0.28894 -0.16287 0.18538 0.28212 6.1689E-4 -0.12699 0.18044 0.092061 0.34216 0.045041 -0.2013 -0.055719 0.37878 0.15201 0.038331 -0.46878 0.21091 -0.17619 -0.034399 -0.17115 -0.17701 -0.2829 0.23525 -0.5107 0.32375 -0.07456 -0.2939 -0.17651 0.46671 0.15616 -0.14822 0.097345 -0.094786 0.068345 0.14087 0.05602 0.050211 0.20304 0.40592 -0.19938 0.43685 -0.2416 -0.27348 0.18581 0.077118 0.02174 0.21546 0.1201 0.38245 0.075563 -0.087153 0.29918 -0.0067576 0.013547 0.32596 0.22893 -0.13306 -0.074407 0.25497 0.034814 0.16346 0.083872 0.13075 0.019752 -0.24924 -0.16281 0.23595 -0.1027 -0.26218 0.071814 0.11929 -0.19982 0.11246 0.066508 -0.080346 -0.20295 0.023146 0.069004 0.011248 -0.087923 -0.089769 -0.27475 0.11898 -0.41436 -0.018852 -0.16133 0.032871 0.12263 0.089722 -0.035086 0.13332 0.023056 -0.011422 -0.39145 -0.20277 0.13321 -0.18496 -0.021984 -0.021414 0.41756 -0.073412 0.0064053 0.035243 0.084555 0.3321 0.17667 0.079874 -0.1266 -0.13159 -0.12481 0.3267 -0.35213 -0.22846 -0.16365 -0.044612 0.039644 0.037737 0.051189 -0.10217 -0.13261 0.16519 0.097297 0.19217 -0.031104 -0.046431 0.080434 0.19434 0.2659 -0.18569 0.15759 -0.058834 0.1701 0.064878 0.050963 -0.31749 -0.2256 -0.16598 0.076894 0.14805 -0.059677 0.024313 0.079977 -0.037089 -0.11907 -0.097154 0.049971 -0.20898 -0.018133 0.35779 -0.082428 -0.056423 -0.18711 -0.20369 -0.080523 0.018756 0.13585 -0.263 -0.015011 -0.23497 0.10874 0.036567 0.073143 -0.099241 0.044918 0.31729 0.13172 -0.019684 -0.21061 0.16413 -0.090713 -0.031226 -0.018431 -0.30136 0.1224 0.35402 -0.035276 -0.074811 0.18999 0.0064988 0.25487 -0.10435 0.080538 -0.41049 -0.12443 -0.17521 -0.114 0.080986 0.18065 0.093638 0.57809 0.030467 0.33233 0.070478 -0.32292 -0.43323 -0.13374 0.32876 0.18305 -0.050014
planning 0.030057 -0.16116 -0.054072 -0.34074 -0.042221 0.050649 -0.14146 0.0092826 0.41396 0.078418 0.16927 -0.15695 -0.24599 0.064438 0.068419 0.10391 0.24449 -0.07585 0.0020762 -0.30466 0.21146 0.081882 -0.057227 0.003053 -0.29684 -0.12018 -0.022923 -0.17 0.14857 -0.039784 0.020594 0.21035 0.20464 0.16529 -0.092598 0.33856 0.16093 0.28873 0.10165 0.086435 0.015986 -0.099159 -0.044579 0.053414 0.12987 -0.33939 -0.10276 0.14804 -0.10973 0.0384 -0.13687 -0.21219 0.18131 0.10565 0.072902 -0.2493 -0.13623 -0.01089 -0.043605 0.15445 -0.15979 0.028139 0.31359 -0.24847 -0.1513 0.14011 -0.28772 0.015528 -0.13215 -0.25519 0.23285 -0.1719 0.05255 0.075838 0.17247 -0.17856 -0.080435 0.078741 0.17253 -0.24456 0.27851 0.040429 0.041934 0.12634 0.36294 0.042681 0.027087 0.20765 0.22947 0.146 0.17142 0.020868 -0.17706 0.071911 0.071152 -0.21142 0.13479 -0.25987 -0.044107 -0.060464 0.23006 0.10515 -0.066608 -0.075976 -0.17848 0.29831 -0.064057 0.075964 0.17525 0.17195 0.30324 -0.10654 0.0077436 -0.21626 -0.11925 0.3493 -0.15022 -0.14178 0.028543 0.086377 -0.096575 0.17019 0.0052268 0.057933 -0.11584 -0.090301 -0.053747 0.072285 -0.034491 0.04134 -0.074397 -0.17706 0.038639 -0.099947 0.44432 -0.069794 -0.1805 0.14179 0.24501 0.17075 0.041908 -0.04306 0.020162 -0.13703 0.18422 0.32908 0.19204 -0.057877 -0.089477 -0.047528 0.027357 0.21463 0.12649 0.20482 0.1544 0.13957 -0.25921 0.091642 0.11641 0.30902 -0.24407 -0.096776 0.050322 -0.12333 0.16448 0.11511 -0.15101 -0.042489 -0.05922 -0.085158 -0.021216 0.31912 -0.011873 0.027049 -0.10515 -0.33803 -0.114 -0.03727 0.0021227 0.0086893 -0.19756 0.086567 -0.057081 0.21513 -0.25611 -0.31765 -0.25529 -0.20287 -0.088741 -0.17868 -0.15433 -0.1355 0.044114 0.022155 -0.12118 0.1683 -0.12475 0.093233 -0.17057 -0.0052229 0.1717 -0.20667 -0.0044889 -0.09997 0.10783 -0.060481 0.10154 -0.21816 -0.0045395 -0.0031363 -0.09862 -0.026234 -0.090242 0.35494 0.082413 -0.045833 0.2157 -0.1229 0.067459 0.042124 0.089906 -0.032518 0.21199 0.36595 0.19842 0.024459 -0.01111 -0.091132 0.1212 -0.035516 0.028589 -0.32989 0.12016 -0.041725 -0.14026 0.11212 0.10507 -0.1022 -0.074938 0.0096237 0.13435 0.15877 -0.23395 0.072442 0.11076 -0.083645 0.065807 -0.1731 0.060081 -0.10468 0.010694 0.1816 -0.058193 0.034497 -0.096639 0.0071118 -0.13665 0.21533 -0.18421 -0.13436 0.11808 0.14678 0.28492 0.020495 -0.21223 0.31096 0.010396 0.14883 0.17063 0.27374 0.088548 -0.19812 0.37238 0.12916 0.37986 -0.082738 -0.049064 0.052353 -0.054149 0.067381 0.10261 0.031171 -0.095545 -0.11224 -0.061237 -0.084395 0.10297 -0.071722 -0.0046382 -0.26449 -0.12951 -0.23452 0.13328 -0.1208 0.14138 -0.11868 -0.047519 -0.13881 0.17281 -0.073131
canyon 0.39015 -0.21442 -0.19203 -0.0662 0.070183 -0.13759 -0.33986 0.068464 0.31068 0.37899 0.0093709 -0.58322 0.049146 0.13116 -0.0017606 0.46163 -0.59651 -0.057263 0.36622 0.039738 0.24638 0.19422 -0.4898 0.55985 -0.28466 -0.47134 -0.10278 0.34504 0.18927 -0.12042 -0.067209 0.27285 -0.1666 -0.20408 -0.46582 -0.26435 0.31884 -0.22027 0.0030181 -0.26561 0.079617 -0.25518 0.17595 -0.021199 0.23675 -0.22337 0.020689 -0.078024 0.08794 0.36955 -0.064923 0.24827 -0.37043 -0.10927 -0.26779 -0.079576 0.11661 -0.48236 -0.25224 0.19106 -0.035932 0.27595 0.040298 -0.35988 -0.13618 0.26294 -0.047346 0.28408 -0.24818 -0.10739 0.076601 -0.0013277 0.018783 3.6599E-4 -0.0040023 0.3699 -0.45885 0.041204 0.059809 0.074713 0.19479 0.081592 0.30107 -0.069699 0.065495 -0.069343 0.017618 -0.25292 -0.056959 -0.22568 0.1959 0.28448 0.19159 -0.040766 0.24958 0.27333 -0.097268 -0.21727 0.268 -0.24834 -0.093399 0.36004 -0.28526 -0.12177 0.39505 -0.12035 -0.017916 0.57609 0.12163 -0.51738 -0.249 0.014799 -0.40646 0.32994 -0.209 -0.08716 -0.090665 0.037919 -0.062094 -0.090069 0.031497 -0.08074 0.22652 0.4421 -0.08683 0.22596 0.010872 -0.17368 0.046797 -0.019449 0.047884 -0.2259 0.40644 0.27063 0.080234 0.054196 0.11802 0.32029 0.17004 -0.14752 0.50514 0.43078 0.22358 -0.060616 -0.18929 0.053893 -0.11807 -0.086806 0.28753 0.27954 0.33787 0.23421 -0.056029 0.30436 -0.076773 0.069629 0.19775 -0.16272 -0.20246 -0.052639 -0.0061617 -0.095623 0.46429 0.040593 0.30088 0.05353 -0.29769 -0.40288 0.023115 -0.18925 -0.2928 -0.16721 -0.10694 -0.11713 0.20733 -0.011347 0.17327 -0.1733 0.040631 0.072455 -0.41905 -0.11183 -0.1776 -0.15356 0.014648 0.083777 -0.024777 0.13693 0.045314 0.35503 -0.32346 0.53558 -0.25873 -0.028016 0.19154 0.027519 0.1119 -0.29027 0.0042693 0.44682 0.092588 0.16867 -0.089078 0.27782 0.22233 0.098305 0.29678 0.20069 -0.54342 0.15549 -0.52215 0.43872 0.042031 0.029385 -0.167 0.086703 -0.15135 -0.047473 0.21937 -0.089393 -0.035848 -0.22239 0.20653 -0.19805 -0.19898 -0.054789 -0.21614 -0.049039 0.1116 0.33503 -0.01694 0.16121 -0.048168 0.54324 -0.27327 -0.49357 -0.25189 -0.16039 0.19872 -0.0049807 0.013401 -0.17984 0.17781 -0.25486 0.17782 -0.53134 0.16684 -0.18567 -0.15857 0.18627 0.062314 -0.23931 0.019289 -0.42188 -0.067461 -0.097264 0.31679 -0.15712 0.0033544 0.32631 0.021979 0.058125 0.14136 0.15674 -0.20068 0.031333 0.11052 -0.33037 -0.11738 0.22173 0.22149 -0.25467 0.26606 -0.22589 0.15777 -0.19485 -0.1102 0.15286 0.3202 -0.21856 -0.049098 -0.12886 0.5717 0.12185 -0.20406 -0.080727 0.0791 -0.66009 0.23099 0.16617 -0.027979 -0.11435 0.32988 0.41239 -0.03368 -0.0228 -0.3702 0.27548 0.22341 -0.23893
delay -0.11694 -0.035497 0.12629 -0.34245 0.39422 -0.037159 -0.371 -0.17564 0.17916 0.1825 0.23803 -0.069272 -0.26706 0.23541 0.18959 0.035441 -0.22714 -0.012243 -0.02074 0.30236 -0.033279 -0.23549 -0.22629 -0.22718 0.16797 0.12977 0.31754 -0.032107 -0.34088 0.071312 -0.052306 0.065751 -0.069458 0.065703 -0.058112 -0.0092577 0.31249 0.45931 -0.25213 0.27272 0.062592 0.032406 0.0081394 -0.26645 -0.044061 -0.20659 -0.0060022 0.25393 -0.14731 -0.087893 0.091008 0.23162 -0.041941 0.097231 -0.070184 0.055544 -0.22771 0.21029 0.17111 -0.06892 -0.17927 0.20137 -0.21985 -0.073975 0.1843 -0.072296 -0.24179 -0.16871 0.080872 -0.28103 0.2031 -0.29013 -0.0094449 0.14898 0.41621 0.13958 0.15166 0.154 0.22493 -0.29096 0.047752 0.076563 -0.24023 0.29496 0.14721 -0.12614 -0.0066251 0.044908 -0.23956 0.33313 -0.1048 0.014727 -0.39797 0.094062 -0.02285 -0.13361 0.067666 0.052221 -0.11513 -0.10126 -0.098854 0.17717 0.080747 -0.2081 -0.16719 -0.11645 -0.17172 0.098357 -0.040058 2.3989E-5 0.11384 -0.31106 -0.2258 0.13669 -0.026824 0.11878 0.019592 0.026326 -0.083342 0.090538 0.12242 -0.12242 0.0038331 0.0602 -0.50203 0.30839 -0.012996 0.29143 -0.05836 -0.12352 -0.15241 -0.03323 0.094465 0.0023289 0.25757 -0.040726 -0.12444 -0.20289 0.06156 0.062223 -0.12076 -0.15848 0.07635 0.00178 0.18917 0.10584 0.24714 0.23291 0.042 -0.115 -0.11186 0.22736 0.20819 0.17817 0.13118 0.13215 0.26049 -0.044992 -0.13325 -0.13793 -0.10867 -0.049234 0.034526 -0.22317 0.25408 0.1996 0.091853 -0.18558 0.30359 -0.17346 -0.18974 0.017233 0.02709 -0.10268 -0.38485 -0.4239 0.011287 0.27346 0.26725 0.099632 0.0029333 -0.07024 0.0027289 0.029881 -0.16083 -0.12842 -0.0036445 0.15899 -0.084677 -0.051171 0.1369 0.010263 -0.22035 0.14881 -0.0087619 0.24473 0.066849 0.38284 -0.25509 -0.23929 0.28789 -0.066696 0.21776 0.17569 0.32366 0.086186 -0.15162 0.029921 -0.078855 0.42959 -0.33626 0.23764 0.14051 0.20039 0.14507 0.15723 0.059364 0.065265 0.095189 -0.12614 0.3488 -0.26775 0.2836 0.28289 0.62592 -0.092201 -0.075846 0.042979 -0.26763 -0.053442 -0.06136 -0.64103 0.34063 0.39414 0.22804 0.042842 -0.11094 -0.25621 0.14502 0.024957 -0.12675 0.17429 -0.20315 -0.30013 0.17605 -0.3135 0.17588 -0.040533 -0.11185 0.050018 0.19564 0.47757 -0.061204 0.095375 0.019897 0.1286 -0.28291 -0.097824 0.23609 0.015809 -0.0046166 0.18607 0.23562 0.11874 -0.02733 0.24798 0.017559 0.17823 -0.068795 -0.0060002 0.18308 0.066649 -0.051061 0.074158 0.094496 0.13697 0.1367 -0.054862 -0.0033297 0.14924 0.26848 0.1364 0.30404 -0.30541 0.024859 0.20581 0.039879 0.04179 0.21031 -0.10863 -0.08173 -0.28074 0.087338 -0.1304 0.15848 -0.18704 0.11604 -0.083915 0.081313 0.21508
size 0.42621 0.0015806 0.051353 -0.15152 -0.043735 0.14845 0.0255 0.053786 0.012354 -0.062376 0.15384 -0.44777 0.083114 -0.055673 0.034087 0.53021 -0.031417 0.11581 -0.29148 -0.17451 0.44692 -0.063782 0.0041005 -0.15514 0.22188 -0.23742 0.060416 -0.062214 -0.12588 -0.16405 0.12005 0.17374 -0.29223 0.17243 -0.099505 0.10827 0.028947 0.08352 -0.0018271 -0.020292 0.25356 -0.015375 0.10241 0.011086 0.21904 0.04397 0.09181 0.11223 0.031031 0.24989 -0.25482 -0.084551 -0.18346 -0.22344 0.043416 -0.19096 0.13682 -0.15017 0.36692 -0.1391 0.062909 -0.21273 -0.15196 0.1648 0.15064 -0.23367 -0.45438 0.065207 -0.31561 0.17388 0.24728 -0.024297 -0.05803 -0.20418 0.18653 -0.13958 0.31559 0.12065 -0.29098 -0.056326 0.17834 -0.26552 -0.025677 0.16217 0.14889 -0.29338 0.035983 0.43466 -0.30642 -0.076849 0.45523 0.08926 0.15638 0.2041 0.059552 -0.23621 -0.11716 -0.095346 -0.043927 -0.24488 -0.11516 0.20284 -0.13241 -0.085781 0.21851 0.16198 0.053984 0.54829 0.12132 0.18957 -0.066297 0.010068 -0.061544 0.35827 0.16219 -0.044303 -0.54839 0.081057 -0.053749 0.06678 -0.042458 0.045526 -0.066849 -0.031486 -0.013007 -0.16846 -0.046825 -0.036992 0.17608 0.13117 -0.22768 -0.0018923 0.15705 0.2125 0.26185 -0.13816 0.069157 0.034185 0.15047 0.24673 0.1268 -0.0035093 -0.077539 0.022957 0.038395 0.20927 0.12856 0.16672 0.096573 -0.0048714 0.050757 -0.023645 -0.027508 -0.034493 -0.048574 0.06727 0.0038765 0.26184 -0.36143 0.10588 -0.099829 -0.028822 -0.26542 0.14932 -0.026112 -0.20194 0.16942 0.2779 0.25528 0.12203 0.16744 -0.050036 0.27513 0.078344 -0.042063 -0.0043575 0.083886 -0.20773 -0.0065459 -0.10185 -0.052011 0.038379 0.028868 -0.036909 0.068358 0.0062432 -0.083307 0.034226 -0.021657 0.39715 -0.062062 0.31428 -0.10154 0.11999 -0.2979 0.20961 -0.013803 0.10011 -0.3609 -0.15089 0.31703 0.16681 -0.036052 -0.10134 -0.042193 0.073743 0.062646 0.11715 -0.36679 0.070495 -0.24196 0.16323 0.20955 0.046192 -0.019907 0.35921 -0.069948 0.0072432 0.21085 0.078473 0.2571 -0.10304 -0.0037031 0.05514 0.10022 0.11148 0.061951 -0.16473 -0.039306 -0.18134 0.21938 -0.021204 0.47457 0.066513 0.094622 0.18459 -0.10445 -0.029518 0.12236 0.11224 0.012321 0.013611 -0.31677 0.080866 0.23368 0.15251 0.4317 -0.010458 -0.14198 -0.20721 -0.27482 -0.32047 -0.16073 0.013505 0.076269 0.14096 0.20699 -0.19832 -0.065095 -0.063926 0.15397 0.075331 0.1741 6.5197E-4 -0.11562 0.21906 0.099693 0.21127 0.32566 0.14936 -0.018543 0.31918 0.06755 -0.10885 0.032724 -0.046464 -0.021088 -0.062898 0.17721 0.07765 0.30329 0.09254 0.097923 -0.2738 -0.030762 -0.11078 -0.26158 -0.22897 0.36429 0.20079 0.44702 -0.080103 0.25597 0.24748 0.073168 -0.37199 0.22469 0.39986 -0.040117 0.17883
peace -0.13702 -0.014019 -0.17079 -0.10455 0.3543 -0.11961 -0.40323 0.067341 0.33928 -0.1169 -0.13862 0.11522 -0.56575 0.20156 -0.072942 -0.14575 -0.056035 -0.047032 0.046829 0.05443 -0.018649 0.18802 -0.057544 -0.040589 0.27446 -0.5977 -0.021781 -0.025355 0.18047 -0.2763 0.25281 -0.33626 -0.24838 0.38359 0.1316 -0.27997 0.03304 0.068332 -0.21964 0.11168 0.30315 -0.10036 0.22219 -0.23039 0.1592 -0.02935 0.16017 0.087287 -0.13195 -0.018075 0.28024 -0.12438 -0.029908 -0.14169 -0.3368 -0.17095 0.18126 -0.41185 -0.03521 0.33369 0.47511 0.0254 -0.04059 -0.16603 -0.50159 0.047594 0.10023 -0.1598 0.25555 -0.45791 -0.17989 -0.08073 -0.031939 0.33943 -0.29092 -0.096469 -0.10182 0.10018 0.31316 0.18966 0.016806 -0.28008 -0.062446 -0.22975 0.090018 0.31411 -0.20533 -0.025657 -0.32959 -0.57617 0.2989 -0.013 0.23801 0.29196 0.23771 0.022016 0.27476 -0.090753 -0.10642 -0.26547 0.17992 0.40277 -0.083283 -0.28381 -0.077259 -0.153 -0.12063 0.48936 -0.044488 0.3567 -0.0089919 0.057923 -0.09526 0.24881 0.15448 0.17542 -0.1668 0.2782 -0.14704 0.15827 0.015743 -0.38465 0.016906 0.3585 -0.29378 0.38954 -0.29257 0.29112 0.20455 0.29339 0.36397 0.029919 0.32706 -0.16745 0.20935 0.13061 -0.18916 0.039149 -0.13146 -0.07134 -0.20046 0.42624 0.10693 -0.18418 0.025152 0.13649 0.36816 -0.068806 -0.21326 0.089837 -0.12863 -0.12981 0.37783 0.20474 0.0064432 -0.20498 0.071107 -0.5865 -0.34374 -0.19899 -0.34979 -0.11646 0.31569 0.20501 0.083611 -0.089323 0.38296 -0.52612 -0.026084 -0.11277 -0.063638 0.019799 -0.30965 -0.51199 -0.017434 -0.58738 0.14405 0.34539 0.038438 0.27449 0.098135 -0.44212 -0.43946 -0.34173 0.010569 0.065726 0.34205 -0.26912 -0.26498 0.31652 -0.40532 0.097628 -0.11594 -0.32202 -0.22448 -0.21205 0.31178 -0.28315 0.24689 -0.34414 0.22268 -0.50291 0.11632 -0.015111 0.11859 0.25481 -0.0085072 0.041282 -0.072 0.2329 0.13178 0.028546 0.0077332 0.14275 -0.30441 -0.27502 0.033633 -0.092981 0.2597 -0.57963 -0.054229 -0.12225 -0.15719 0.29494 0.46291 -0.071626 0.053318 -0.10185 -0.060107 -0.054541 -0.13321 -0.23667 -0.097016 0.22138 -0.39995 -0.11181 -0.1445 0.062058 -0.035729 0.03878 -0.039685 -0.084822 0.25747 0.28116 0.17528 -0.038313 -0.047497 0.34033 -0.0060116 0.22509 -0.23976 0.30487 0.053035 -0.018243 -0.21914 -0.13348 0.0061262 -0.1043 -0.43202 -0.013528 0.0050346 0.0072153 -0.25545 0.034108 -0.061932 0.13718 0.40512 -0.017847 0.31678 0.046148 -0.21213 0.12357 0.024115 -0.038296 -0.28443 0.18086 -0.18897 -0.18332 -0.090468 -0.35155 0.19754 -0.087553 0.085331 -0.18016 -0.053614 -0.14255 -0.085161 -0.55662 0.13993 0.14162 0.080085 0.30727 0.24 -0.075543 -0.1947 -0.21506 -0.13653 -0.20946 0.3127 0.054155
science -0.56029 -0.046267 -0.17925 -0.17887 -0.01337 -0.043881 0.037986 -0.27139 0.30155 -0.068422 0.38611 -0.066901 -0.29923 0.22037 -0.022829 0.21036 -0.058802 0.15721 0.10672 0.090779 0.35497 0.22612 0.16961 -0.022299 0.020818 0.031434 -0.014439 -0.080731 -0.19757 0.053307 -0.12098 0.035021 0.15758 -0.02444 0.069337 0.0011426 -0.18043 0.17506 -0.21455 -0.089376 0.27871 -0.0038687 0.50781 -0.27342 0.14575 0.050316 0.46278 -0.22456 -0.23617 0.21863 0.21917 -0.084341 0.20611 -0.1941 0.058721 -0.10261 0.0053185 0.053807 -0.1804 0.020097 0.24294 4.9302E-4 -0.45989 -0.094088 -0.048261 0.2717 -0.22062 -0.33252 0.011221 -0.0076989 0.084703 -0.080667 -0.51415 0.065882 0.048025 -0.013304 -0.20833 -0.010341 0.1293 -0.3098 -0.24535 -0.0033551 -0.067546 0.010461 0.0048752 -0.17214 0.71649 0.17429 -0.15011 0.13416 0.24927 0.039748 0.14651 -0.062204 -0.28463 -0.1503 -0.12838 0.10963 0.028138 -0.051744 -0.29912 0.4551 -0.24224 0.24547 0.18089 0.39659 -0.26053 0.096072 0.20105 0.051649 0.023356 -0.21219 0.048664 -0.024832 0.087993 0.10495 -0.15061 -0.1511 0.039828 0.19513 0.29019 -0.16888 -0.1784 -0.017757 0.21305 0.16917 -0.2642 -0.30594 -0.33098 -0.0017502 -0.072361 0.042002 -0.27057 0.064507 -0.1031 0.25088 0.15289 0.46381 0.26631 -0.047713 0.17551 -0.04313 -0.36808 0.24762 -0.26556 0.22656 0.25134 -0.23917 -0.040084 0.19388 0.13983 -0.041397 -0.051234 0.11335 -0.13236 0.042576 -0.28866 0.0023416 0.091513 0.04231 -0.11454 -0.15113 0.1502 -0.14402 0.023307 0.16302 0.19758 -0.051087 0.084192 -0.075265 -0.2032 0.43547 0.10238 -0.059959 0.08195 -0.27662 -0.30564 0.11166 -0.12359 0.12789 -0.14208 -0.20666 0.15674 0.073371 -0.10267 -0.25317 -0.27532 -0.12435 0.36437 -0.16181 -0.044565 0.26174 0.078626 -0.27106 -0.29216 -0.060703 0.24816 -0.032749 0.15474 0.022788 0.16794 0.034717 0.24724 0.35323 0.34396 0.045931 -0.1305 0.3464 -0.21379 -0.030373 0.0027685 0.19821 0.13745 0.024194 -0.20631 0.27464 0.17203 0.018382 -0.23961 -0.16409 0.11551 -0.39264 -0.15294 0.1778 0.085285 0.029038 -0.06932 -0.36543 0.055464 -0.18189 0.014857 0.2369 0.10893 0.10891 0.034578 -0.11388 -0.053916 0.03639 0.13566 0.25566 -0.049955 -0.3265 0.006757 -0.038087 0.4271 -0.20334 0.24857 -0.28217 -0.1523 0.091169 -0.12678 0.36998 -0.15815 -0.14458 -0.14283 -0.080043 0.10929 0.0027683 0.056689 0.021513 0.26668 0.033265 0.1674 -0.065985 -0.026926 0.11561 0.14892 -0.088347 0.195 0.33047 -0.18183 -0.31532 0.20554 0.16015 -0.028833 0.10095 -0.094717 -0.38951 -0.23855 0.1882 0.31959 0.031829 -0.038321 -0.023005 0.047686 0.17818 0.10375 -0.21813 -0.10938 -0.18839 0.16292 0.23628 0.54608 0.16244 -0.038298 -0.19469 0.014522 0.096957 0.27847 -0.030651
dawn -0.094812 -0.55315 -0.22429 -0.25202 -0.0091493 -0.033067 -0.066783 0.2492 -0.17866 3.7423E-4 -0.1547 -0.016901 -0.22057 0.10582 0.36202 0.45601 -9.6458E-4 -0.25227 0.23348 -0.13529 0.11977 0.41281 -0.40952 0.39539 0.31069 -0.55125 -0.51071 -0.19779 0.20514 0.18747 -0.27305 0.18415 0.016975 0.17058 -0.24037 -0.20411 -0.19422 0.205 0.026154 0.033698 -0.002286 -0.33254 0.16585 0.12721 0.32033 -0.35848 0.22835 0.22845 0.20699 -0.067495 -0.11729 0.17983 -0.059039 -0.1256 -0.062339 0.31229 0.24104 -0.24789 -0.36471 0.43707 0.13251 0.056852 0.24517 -0.4204 -0.13607 -0.14437 0.20673 -0.17388 -0.15573 0.29271 0.075826 0.16131 0.099751 0.34833 -0.0050181 -0.056917 0.10835 -0.030791 0.35471 -0.18808 0.11025 -0.071428 -0.19206 0.41162 0.047514 0.2846 -0.24183 0.33197 -7.0332E-4 0.14104 0.37265 0.46613 0.061292 0.33371 0.26111 0.079276 -0.31857 -0.31426 -0.47572 0.25867 -0.36728 0.30114 -0.45661 -0.21127 -0.14748 0.028451 0.11032 0.31496 -0.17519 0.025991 0.2542 0.12276 0.28559 0.11787 -0.21252 -0.19677 -0.073003 0.0668 0.010665 0.22406 -0.040533 -0.11282 0.16376 0.29891 -0.19398 0.64358 -0.29444 -0.064607 0.26228 0.054618 -0.097146 -0.11819 -0.27662 -0.060446 0.14507 0.11714 0.17841 0.06852 0.18257 0.13369 0.16912 -0.20718 0.23312 -0.41911 -0.14432 -0.20809 -0.066159 0.18872 -0.25468 0.39738 0.2152 -0.31615 0.43431 0.57322 0.097878 -0.2864 0.20184 0.22515 -0.02738 -0.37553 -0.13521 0.14003 -0.087146 -0.44808 0.087279 -0.18146 -0.21187 -0.17956 -0.017209 -0.1067 0.36066 0.055881 -0.14858 -0.022135 0.069128 -0.14195 0.15578 0.31632 -0.11955 0.043747 -0.33373 -0.037615 -0.35458 -0.14385 0.11611 -0.10721 -0.12317 -0.072544 0.020436 0.037843 -0.32033 0.3265 -0.27617 0.00216 -0.018244 0.2257 0.11636 -0.042635 -0.038028 0.20826 0.35543 -0.33978 -0.061803 0.33341 0.30471 0.22544 0.27488 0.12207 -0.21574 0.09725 -0.43836 -0.054532 0.40262 -0.022633 -0.22934 0.20173 0.11321 -0.20326 0.38729 0.071012 -0.017498 -0.11193 0.11469 -0.20564 0.38368 0.09994 0.13646 -0.092075 0.10161 0.17379 -0.17735 -0.098039 0.15048 0.26534 0.19794 -0.29486 -0.015495 0.14947 -0.054589 -0.062807 -0.086104 0.4474 0.10997 0.078782 -0.14072 -0.098039 0.18862 0.012345 -0.074571 0.03073 0.39326 0.40654 0.012155 -0.29138 0.43616 -0.19114 -0.23621 -0.17401 0.42658 0.14142 0.011233 -0.26792 -0.14889 -0.37911 -0.081109 -0.0043867 0.17014 -0.26909 -0.16099 -0.039152 -0.29934 -0.038706 0.33118 -0.21037 -0.29662 -0.07958 -0.078537 -0.099596 0.070312 0.049871 0.057372 0.18429 -0.0096038 -0.23143 0.37913 -0.27604 -0.2597 -0.33964 0.047304 0.12262 0.15441 -0.21524 0.25864 0.10413 0.0061363 0.033569 0.075113 0.18115 0.080219 -0.014688
brother 0.062111 -0.10079 -0.27121 -0.68489 0.069912 -0.08811 -0.49184 0.16051 0.066198 0.27778 -0.024166 -0.42136 -0.17875 0.33846 -0.04279 0.31522 0.023224 -0.13142 -0.12336 0.39538 0.28833 0.35252 -0.42205 -0.081551 -0.080113 -0.43839 0.44104 0.014353 0.1464 0.081019 -0.21066 -0.1554 -0.09945 0.084626 -0.073095 -0.023856 -0.48858 0.053199 -0.1577 -0.012461 -0.26986 -0.14034 -0.21873 -0.45516 0.15146 0.065398 0.27412 0.029284 -0.053487 -0.028007 -0.11895 -0.30588 -0.20479 0.029967 0.50677 0.03023 -0.064179 0.019594 0.23436 0.37261 0.083972 0.05772 -0.12367 -0.04657 0.048436 0.08086 -0.012303 -0.095097 -0.2244 0.068931 0.14112 0.36268 0.30029 -0.21718 0.19106 0.25232 0.23804 0.23619 0.053205 -0.17333 0.25378 -0.042234 -0.17033 0.12604 -0.25955 0.138 0.012273 0.12886 -0.20269 0.022236 -0.0099185 -0.15574 0.050776 -0.078508 -0.22336 0.047352 0.18606 -0.050348 -0.024112 -0.015931 0.15946 0.092167 -0.14266 -0.12658 0.14064 0.17374 0.17971 -0.09736 0.011345 -0.52426 0.095706 0.035772 0.073227 0.20322 0.043972 0.097757 -0.11783 -0.29207 0.14193 0.050949 0.23732 -0.28315 0.27909 0.14505 -0.43042 0.14302 -0.1752 0.14512 -0.040562 0.27521 -0.012337 -0.15421 -0.088775 -0.28166 0.088141 0.1601 0.27707 0.26212 -0.041279 0.055074 0.2603 -0.15056 0.009357 0.088802 0.065827 0.18159 0.067016 -0.49124 -0.3192 -0.16363 -0.30129 -0.023771 0.25576 0.052122 0.25062 -0.1801 -0.093071 -0.019079 0.2507 0.071078 -0.076383 -0.13992 0.19157 -0.14351 -0.33278 -0.15754 -0.038248 0.061267 -0.044486 0.092176 -0.13553 0.064653 -0.090208 -0.036503 -0.043233 -0.21008 -0.20793 -0.21568 0.21049 0.051704 0.11873 0.068107 -0.17295 0.047179 -0.14282 -0.12192 0.081952 0.14947 -0.059608 -0.033762 -0.080579 -0.24131 -0.019436 -0.5127 -0.19975 -0.12053 0.019691 -0.058987 0.019843 -0.024152 0.34793 0.18299 0.18922 -0.11822 0.15744 0.075084 0.53371 -0.01295 -0.21838 0.10834 0.022062 0.20047 -0.086481 0.1055 0.224 0.088096 0.16805 -0.26793 0.38222 -0.38066 0.009667 -0.12852 -0.29711 0.12176 0.25464 0.050917 -0.42247 0.2706 -0.21206 -0.02965 0.13712 0.015349 0.18433 0.050046 -0.13104 0.066945 0.24424 0.086693 0.069658 -0.11923 0.11377 0.40149 0.10983 0.1853 -0.035058 0.30758 0.074936 0.10213 -0.0083835 0.4625 -0.061297 0.30946 0.18462 -0.34888 -0.062328 0.10852 -0.24358 0.066924 0.022253 -0.22142 0.083807 -0.02062 -0.02122 0.19686 0.14325 0.36544 0.22011 0.17255 -0.12113 0.23737 0.095106 -0.26995 0.38045 -0.36261 -0.063386 -0.07672 -0.10334 0.13987 0.061283 -0.011463 0.20087 0.22052 0.25968 -0.18872 0.2286 -0.1044 0.031272 0.41983 0.0026384 -0.027468 0.096468 0.062471 -0.069002 0.054501 -0.12794 0.01582 -0.026281 -0.18336 -0.042326 -0.15271
wine 0.41776 0.043552 -0.38134 -0.030622 0.08532 -0.12323 -0.068251 -0.10131 0.17367 0.051177 -0.30625 -0.59733 -0.18668 -0.31792 -0.058266 -0.1936 -0.32357 -0.5081 -0.11799 -0.14782 -0.13842 0.27736 -0.097303 -5.6838E-4 -0.025462 -0.28062 -0.12579 0.35225 -0.15901 -0.36073 -0.24759 0.13943 -0.20054 -0.045131 -0.6281 -0.26366 -0.41366 0.10053 0.071018 -0.30437 -0.002393 0.1116 0.071443 0.087632 -0.061365 -0.22108 0.237 0.26851 -0.064872 0.2455 0.16821 -0.28251 0.23477 -0.29241 -0.29373 -0.16481 0.1083 0.05463 0.29296 0.21563 0.15256 0.016065 -0.019367 0.10641 0.030696 0.34765 -0.47518 -0.18919 -0.13363 -0.050569 -0.0083497 -0.10735 -0.16355 -0.0051494 -0.039142 0.20258 0.23093 0.064515 0.081421 -0.26752 0.20384 0.014187 0.046079 0.21682 0.20145 -0.18787 0.040453 0.022021 -0.19376 0.1514 0.39827 0.27647 -0.013988 0.5223 -0.075612 0.28019 -0.47833 -0.20842 -0.057723 -0.10336 -0.13907 0.18579 -0.22848 0.03276 0.49632 0.093065 0.10372 0.53733 0.23861 -0.02654 0.33018 0.26368 -0.13414 -0.19877 0.051367 0.055299 0.33261 0.28305 0.12752 0.28296 0.032647 0.26226 0.12933 -0.11891 -0.45528 0.1414 -0.09361 -0.13972 -0.46478 0.18165 -0.028668 0.47686 0.015713 0.13363 0.31108 0.081146 0.0056118 0.087534 -0.45027 0.055163 0.11892 0.29682 -0.20185 -0.34625 0.17733 0.008798 -0.1004 0.028105 0.11339 0.047407 0.31898 0.14617 -0.038075 -0.10385 -0.23078 0.10549 -0.078344 0.12527 -0.24967 -0.35815 0.61139 0.1125 0.097412 0.017993 0.10869 -0.17131 0.14396 0.044239 -0.24931 -0.14968 0.2215 -0.052273 0.29871 0.091537 0.02691 -0.12731 -0.074732 0.026841 -0.092447 -0.063828 -0.20701 -0.33683 0.46196 0.39535 0.26153 -0.67754 0.12706 0.027887 0.23436 0.34973 -0.13502 -0.037722 -0.25046 -0.14917 -0.38579 -0.082222 0.084277 -0.022018 0.021096 0.015713 0.11684 -0.15788 -0.10696 -0.083306 0.36915 0.26724 0.41926 -0.04793 -0.26193 0.087493 -0.1932 -0.25852 -0.26072 0.0063455 0.11337 0.4127 -0.19906 -0.13976 0.35046 0.085183 0.22264 -0.16581 0.3203 0.20475 -0.41358 0.13042 0.039403 0.031512 -0.17531 -0.11189 0.23003 0.15148 0.064068 0.13356 -0.30933 -0.18923 -0.17901 -0.021973 0.044288 -0.21765 -0.023971 0.1804 -0.23593 0.077389 0.48328 -0.0026261 -0.060967 0.081408 0.095979 0.10903 0.14817 0.039362 0.14259 -0.035022 -0.29905 -0.06956 0.14324 -0.34054 -0.19096 -0.044253 -0.2877 0.27927 0.089869 0.31593 -0.17681 0.030833 -0.075291 -0.012749 -0.21304 0.53389 -0.25629 -0.13772 0.23815 0.17127 -0.4754 -0.20978 0.0063 -0.084213 -0.13901 0.1887 0.29358 0.17212 -0.15822 0.24587 -0.07642 0.12718 -0.1999 0.24475 -0.29629 -0.11672 0.025018 0.092224 -0.041101 -0.0078951 -9.4368E-4 0.14408 0.11689 0.26091 -0.28054 -0.25285
object 0.13617 -0.33665 -0.019075 -0.23447 0.036127 0.068103 -0.27599 -0.04141 0.23412 0.094164 -0.18837 -0.23397 -0.20482 0.032541 0.049088 0.037706 -0.22455 -0.12275 -0.078004 -0.54661 0.33338 -0.087865 0.013763 -0.083853 0.017718 -0.2801 0.16026 -0.0276 -0.26281 0.30233 -0.034408 0.23426 -0.10301 0.22189 0.13336 -0.2491 -0.080909 0.014332 0.025784 -0.33965 -0.13711 -0.12572 0.059739 -0.0022928 0.15497 -0.11793 -0.11151 -0.10843 0.069446 0.091202 0.21344 0.52071 0.21934 -0.032774 -0.042602 -0.036169 -0.10493 0.316 -0.28348 -0.007659 0.18968 -0.13557 -0.17572 -0.1542 -0.33175 -0.092921 -0.25262 -0.4345 -0.15713 -0.0046312 -0.073307 -0.0017597 -0.046388 0.078838 -0.068277 0.17345 -0.032851 0.25577 -0.19776 -0.20389 0.43902 0.090562 0.26862 0.010702 0.17096 -0.30062 0.28303 0.069611 -0.22921 -0.43916 0.28616 0.0045784 -0.055797 0.22092 0.077592 -0.1271 -0.18515 0.27217 -0.03974 -0.12861 -0.090347 0.24388 -0.36927 -0.11753 -0.036345 -0.12959 -0.05036 0.10879 -0.25118 0.013197 -0.12119 -0.010368 -0.19705 0.015928 -0.17121 0.1097 -0.24672 0.16534 -0.1027 0.012116 0.14677 -0.010656 -0.098416 -0.088218 -0.17364 0.12916 -0.25985 -0.035032 -0.30633 0.030516 0.081453 -0.058698 -0.092531 -0.23182 0.21005 0.021988 -0.14286 -0.02593 0.10242 0.2495 0.091467 0.11875 0.020091 -0.069743 -0.17531 -0.12526 0.13705 -0.16424 0.069249 -0.24974 -0.0038161 0.088486 -0.053347 0.074276 -0.029894 -0.11926 -0.073545 -0.22569 -0.10318 -0.018716 0.053232 -0.050416 0.094461 -0.16557 0.014251 -0.26803 0.096147 0.11636 -0.21119 -0.025635 0.20057 -0.052303 -0.0022439 0.21526 -0.10511 -0.27961 0.1032 0.17458 -0.097725 -0.013857 -0.017581 -0.070993 -0.22567 -0.023527 -0.20726 -0.1224 -0.099949 0.11964 0.32709 0.066113 -0.0080678 0.40289 -0.11263 0.15171 -0.20069 -0.14299 0.18826 -0.19511 -0.031296 -0.15808 0.13465 -0.056693 0.16803 0.22495 0.10959 0.12203 0.059378 0.37252 -0.17686 0.32639 0.14681 0.13213 -0.26777 -0.0066841 -0.1133 0.0048146 0.11676 -0.097154 0.24932 0.11556 0.21186 -0.18553 0.042896 -0.049231 0.039964 -0.048143 0.011421 -0.23473 0.12747 0.099065 0.072922 -0.10412 -0.21019 0.29009 -0.17559 -0.30326 0.031612 -0.11313 0.02066 0.14774 0.42815 -0.027299 0.01955 -0.088344 0.21636 -0.26659 -0.030577 -0.025258 -0.17176 -0.04539 0.13341 0.15358 -0.31618 -0.18379 -0.27105 -0.046817 0.070558 0.18762 0.095819 0.22898 -0.019174 -0.0075823 0.52173 -0.14724 -0.038033 0.028255 0.067765 -0.092307 -0.034587 -0.028048 -0.23449 -0.22605 -0.13467 -0.11233 0.12315 -0.057645 0.37328 0.22137 0.060315 0.16814 0.58351 -0.039127 0.010285 -0.10532 -0.027912 0.012047 -0.31008 0.031772 0.02159 -0.23242 -0.020557 -0.0038846 0.48601 0.080591 0.011909 -0.14236 0.26389 0.030512 0.10541 0.16605
attitude 0.31551 0.19173 0.22657 0.025828 -0.12523 -0.031868 -0.25056 0.13884 0.14621 -0.10664 0.02742 -0.28466 -0.2732 0.36376 0.38873 -0.17368 0.24701 0.059203 0.22407 0.043498 0.055068 0.24938 0.086149 -0.10623 -0.12811 -0.47276 0.1666 -0.066905 -0.1583 0.012714 0.22014 -0.048686 -0.27202 0.0065705 0.003862 0.24982 -0.22379 -0.011343 -0.1989 -0.0039188 0.0057406 -0.13588 0.13224 0.28355 0.0072735 -0.065416 -0.18829 0.088888 -0.093706 -0.080992 0.063721 0.047347 0.10979 0.1164 -0.10604 -0.34442 -0.39917 0.065992 0.17277 0.11906 0.32444 -0.027613 -0.29617 -0.17037 -0.14681 -0.16904 -0.17382 0.062403 0.059127 0.0080854 -0.056753 0.26967 0.16895 0.12383 -0.13815 0.33186 0.066565 0.13376 -0.10466 -0.13777 0.24699 0.42968 -0.0061652 0.080147 0.029655 -0.042065 -0.12328 -0.015913 0.10124 0.050447 0.34039 0.11213 0.07291 0.32216 -0.095525 -0.10139 -0.017834 -0.19301 -0.3393 0.049386 -0.21738 -0.010843 0.014852 0.19807 0.076696 0.023263 0.20822 0.41927 0.087336 -0.056174 0.21312 0.11864 -0.09966 0.018512 0.25121 -0.42743 -0.63928 0.22111 -0.2243 0.31051 0.13848 -0.11418 -0.028537 -0.22831 0.067107 0.38701 -7.3748E-4 -0.1819 0.021022 0.1668 -0.072418 -0.21652 -0.43103 0.25509 -0.20982 -0.13327 -0.32634 0.25874 -0.1274 0.032154 0.22083 -0.012436 -0.26573 0.061759 0.048302 0.13908 0.055122 0.064779 0.17489 0.1487 -0.012874 0.16046 -0.033972 -0.068006 -0.11014 -0.3312 0.050449 -0.033302 0.054536 0.13265 -0.31476 -0.015007 -0.017432 -0.089946 0.0090278 -0.20763 0.022077 0.28565 -0.29279 0.0028093 -0.1683 0.043893 -0.0027872 -0.075391 -0.3737 -0.43473 -0.2821 -0.1147 -0.049633 0.21065 -0.036872 0.20564 0.048583 -0.0077766 -0.16541 -0.093302 -0.074006 -0.24438 0.20378 0.083407 -0.2568 -0.15281 -0.032033 -0.06442 -0.16452 -0.33615 0.22665 -0.56713 0.13866 -0.33593 0.091299 0.049176 0.011752 0.10588 0.19637 0.099347 0.35439 0.36735 -0.1677 0.16965 0.072161 0.22937 0.13089 0.10854 0.10323 -0.062262 0.1283 0.11594 0.21185 -0.0993 -0.1906 -0.33479 -0.17922 -0.064739 0.11064 -0.236 0.1032 0.036749 -0.16629 -0.34124 -0.15091 -0.23839 0.13534 0.045092 -0.28337 -0.022178 -0.34912 -0.14798 -0.021662 -0.098057 -0.17038 -0.15997 -0.15597 0.23637 0.20263 -0.074554 0.11276 -0.28134 0.26889 0.14035 -0.26765 0.0045763 0.05617 0.10671 -0.10059 0.16612 -0.049282 -0.016689 -0.072834 0.068329 0.22375 0.24263 0.11697 -0.063186 0.067446 -0.098473 -0.056553 0.14563 -0.11345 -0.1246 0.081874 -0.29384 0.15858 -0.171 -0.023709 -0.19878 -0.28367 0.2318 0.30376 -0.21299 0.27871 -0.053368 0.067628 -0.37239 -0.21871 0.012847 -0.26035 0.091998 -0.049071 0.20145 0.40525 0.343 0.46454 0.13501 0.022529 -0.19096 -0.28082 -0.11064 0.082863 0.11878
treatment -0.11841 -0.15046 0.28615 0.038714 0.13986 -0.22203 -0.25605 0.23033 0.23522 0.48885 0.3767 -0.2369 -0.39446 0.27428 0.188 0.036748 -0.4141 -0.032708 0.25372 0.11592 0.33845 -0.052174 -0.11572 -0.20066 -0.11907 0.13095 -0.089943 0.017702 0.06059 0.010699 -0.057337 -0.039298 -0.10464 0.08976 -0.066989 0.069503 0.2099 -0.10641 -0.56131 0.11559 -0.046683 -0.23535 0.1987 -0.20995 -0.18402 -0.39398 0.43899 0.085326 0.11813 0.10258 -0.18914 -0.22793 0.33994 -0.43865 -0.055061 -0.19754 -0.1316 -0.047318 0.067232 -0.23595 -0.13431 -0.02844 -0.04364 -0.068219 -0.039426 0.057949 0.06591 0.065267 -0.20352 -0.17393 0.15535 0.068243 0.28438 0.086981 0.14165 -0.11436 -0.047795 -0.055867 0.013025 -0.23045 -0.015863 0.16319 -0.15985 -0.095731 -0.3262 -0.14817 0.246 -0.20867 0.3121 -0.055842 0.011989 -0.03081 -0.0023406 -0.1403 -0.033843 -0.26204 -0.027095 -0.19046 -0.30313 -0.025999 -0.035974 0.15369 0.12074 -0.11128 0.1811 -0.051981 -0.11626 0.15003 0.18785 -0.13062 0.22671 0.035899 -0.023606 0.029261 0.21339 0.12541 -0.1373 0.28164 0.16353 0.10998 -0.094669 -0.086535 -0.33273 0.0022884 -0.1862 0.15564 -0.046912 -0.0048569 -0.14365 0.12987 -0.20576 -0.14514 -0.21387 -0.038379 0.15325 -0.2855 0.012766 0.037454 0.40692 0.0027648 -0.29228 0.39015 0.0071873 -0.53772 0.20111 0.14821 0.0092438 0.137 0.19288 0.11512 0.083642 -0.2187 0.12627 -0.11384 0.21603 0.15027 0.294 -0.036951 0.29851 0.17628 0.23465 -0.023521 0.32502 -0.021239 -0.35335 0.073306 -0.075712 0.13415 -0.095386 -0.16357 -0.11352 0.12105 0.028426 -0.14774 -0.30484 -0.22234 -0.36039 -0.065676 0.15893 -0.1706 -0.26523 0.21803 0.27941 0.3905 -0.17874 -0.049982 0.038518 -0.32112 0.0026476 0.28529 -0.074381 -0.12414 0.071655 -0.32036 -0.26974 0.036834 0.045684 0.049449 0.10587 -0.018515 0.33314 -0.068922 -0.016056 -0.227 0.33714 -0.16848 0.071188 0.22668 -0.033505 0.42711 -0.35199 0.28684 -0.0053188 -0.099802 -0.18279 -0.097538 0.065423 0.16346 -0.17529 0.16726 0.097631 0.10049 0.54265 0.095209 -0.058774 -0.093395 0.0084838 -0.24463 -0.043775 -0.10235 -0.085891 -0.1111 -0.25531 0.11213 0.10794 0.046487 0.1187 -0.087831 -0.037501 -0.004492 -0.21795 0.048071 0.19931 -0.086039 0.2221 -0.5457 -0.36623 -0.027301 0.031577 0.067312 0.068334 0.17028 -0.015441 0.13161 0.12766 0.077892 0.18066 -0.1175 -0.16005 -0.080659 0.23718 0.013885 -0.070371 0.092883 0.11798 0.20082 -0.053269 0.096211 -0.24147 -0.038691 -0.25671 -0.10732 0.083249 0.011393 -0.20017 -0.026515 -0.17853 0.038561 0.37871 0.21849 0.20662 -0.036808 -0.29141 -0.35771 0.12559 -0.0066763 0.13631 0.044583 0.11537 -0.11099 -0.018857 0.096556 0.16616 -0.090342 -0.26141 -0.18198 -0.15249 -0.0014478 -0.029153 -0.21104
flight 0.05829 -0.18057 -0.21966 -0.1603 -0.17569 -0.14812 -0.48992 0.022969 0.44104 0.22349 0.081818 -0.32028 -0.15029 -0.1033 0.15826 0.47106 0.063428 0.024258 0.14099 0.077936 0.12645 0.034698 -0.24497 -0.17549 0.1115 0.020098 0.10678 0.12346 -0.040844 0.16969 -0.061277 -0.10329 0.04519 0.083679 -0.37327 0.029128 -0.18954 0.11465 -0.24843 -0.25229 0.0098704 -0.45465 0.12018 0.129 0.4037 0.0019496 -0.24201 0.1907 -0.027882 0.27442 -0.0042843 0.2337 0.13141 -0.092403 -0.15476 -0.17845 -0.27892 0.10811 0.25517 0.17204 -0.055394 0.17253 0.014363 0.14938 0.10529 0.44771 -0.2593 -0.060204 -0.45434 0.071667 0.4617 -0.26378 -0.11445 0.29681 0.16151 -0.15626 -0.094307 -0.34316 0.068572 0.20639 0.36512 0.26341 -0.48664 0.38632 0.25378 0.34611 0.050889 -0.15455 -0.19143 0.44442 -0.056822 -0.065425 -0.18511 0.0059055 0.38801 0.12318 0.19471 0.12504 -0.10315 -0.23255 -0.023927 -0.042634 -0.08274 0.22795 -0.11688 -0.065638 0.24472 0.51482 0.11055 0.058491 0.054422 -0.29832 -0.19488 0.25793 -0.046899 -0.16516 -0.21403 -0.39119 0.16888 0.17965 0.080063 -0.045086 0.27639 0.37953 -0.21615 0.021069 -0.0023995 -0.019182 -0.13472 -0.21477 -0.086676 -0.069709 -0.019442 0.10079 -0.064078 -0.24529 0.10058 -0.13179 0.18701 0.12556 -0.085164 0.19557 0.020403 -0.38799 -0.02236 0.025353 0.18345 -6.681E-4 -0.30367 -0.13495 -0.095696 0.070649 -0.14658 0.25991 0.074772 -0.30225 -0.070737 -0.43391 0.11697 -0.39258 -0.2176 0.11804 -0.091183 0.18495 -0.26443 -0.14477 0.34202 -0.25786 0.27339 0.10671 0.056 -0.097644 -0.032842 0.49949 0.014963 -0.22243 -0.22393 0.19661 0.18837 0.12081 -0.21144 0.090398 -0.050443 -0.054605 0.1137 -0.14165 0.069616 0.0084358 0.012398 0.18521 -0.12409 -0.078885 0.070604 0.22538 -0.14362 -0.19801 0.1892 0.01252 0.065499 0.061852 0.12345 0.011427 0.34584 -0.053545 0.22314 0.20879 0.37676 0.015648 -0.093571 0.18486 0.37094 0.20325 0.119 -0.12693 -0.046901 0.45242 -0.036738 -0.14039 -0.0098569 -0.059665 0.37623 -0.10188 0.13029 0.40725 0.42971 -0.12714 -0.024934 0.28127 0.21329 -0.065366 -0.31514 -0.39953 0.054736 0.3598 -0.078117 0.1637 -0.20439 0.078945 -0.15321 0.19909 -0.0466 -0.40119 -0.20422 -0.12249 0.16614 -0.21052 0.095383 -0.35683 -0.2482 -0.31337 -0.058245 0.26266 0.16597 0.0077887 -0.42261 -0.056823 -0.13182 0.018266 0.68783 0.17607 0.12504 0.0095017 0.023747 0.10398 0.131 0.48497 0.23527 0.12145 -0.10179 0.36729 -0.18539 0.012837 -0.077142 -0.12975 0.029645 0.26959 -0.0583 0.014046 -0.068917 0.007721 0.34034 0.045588 0.36951 -0.58456 -0.10595 0.045904 -0.24628 -0.0033725 -0.070255 -0.047631 0.16534 0.12549 0.17616 0.065269 0.11521 0.2341 0.20652 0.41766 0.074587 -0.076518
forest 0.041402 -0.40841 0.010064 0.062608 -0.28198 0.040178 -0.18511 0.23882 0.46231 0.17794 0.29183 -0.51607 -0.15083 -0.27007 -0.2429 0.2424 -0.38108 -0.085171 0.15605 -0.059687 0.1945 0.13474 -0.21272 0.29895 0.21683 -0.45748 -0.023195 -0.2054 -0.0093136 -0.24449 -0.30528 -0.029218 -0.10699 -0.022301 -0.39565 -0.14202 -0.37664 -0.015577 0.20926 -0.26159 -0.136 -0.17398 0.28407 0.0019098 0.16658 -0.27344 0.092009 -0.010275 0.052058 0.38254 -0.38973 -0.20223 -0.20618 -0.17699 -0.20032 0.151 0.23943 -0.46939 0.44302 0.31404 0.09575 0.20968 -0.038957 -0.089055 -0.010751 0.23471 -0.03953 0.015409 0.20097 -0.16546 7.2763E-4 -0.43215 -0.15929 0.21937 -0.013475 0.35665 -0.0046383 0.018364 0.2064 -0.36469 0.41901 -0.09504 0.1277 -0.070991 0.2132 -0.27697 -0.062864 0.14222 -0.036396 0.26617 0.012809 0.45111 0.19758 -0.047644 0.017439 0.018514 -0.37831 0.0087235 0.32572 -0.39868 -0.21204 0.0050029 0.017563 -0.066956 -0.0033983 -0.15135 -0.23406 0.31042 0.10379 -0.041322 0.025006 -0.15768 -0.13727 -0.051889 0.097402 0.18966 -0.03492 -0.083167 0.1121 -0.10279 0.21259 -0.22185 -0.41993 0.11351 -0.45589 0.33959 -0.10749 -0.30012 0.073849 0.25134 0.10604 0.24217 0.21777 0.48426 -0.081318 0.024267 0.019622 0.46041 0.11546 0.14312 0.12466 0.26056 -0.13437 -0.17093 0.20599 0.38985 0.38593 0.07654 -0.015292 0.245 0.49519 -0.027261 0.36404 0.21203 -0.12835 0.293 -0.02856 -0.43687 -0.021959 -0.23203 -0.070492 0.11216 0.23277 0.011856 0.40798 -0.13398 -0.30258 0.029743 0.16547 -0.38865 -0.14608 0.066568 -0.096993 -0.3064 -0.20082 0.058381 -0.078101 0.09778 0.09154 -0.14818 -0.35236 0.14506 -0.29568 -0.15934 -0.035843 -0.0363 0.078746 0.17719 0.027437 0.14771 -0.141 0.11128 0.013696 0.072144 -0.053291 -0.25259 0.22373 0.030524 0.41998 0.13426 0.13036 -0.19031 0.32266 0.12509 0.13198 0.21739 0.4227 -0.066054 -0.081687 -0.31237 -0.2923 -0.11986 -0.033103 0.015821 -0.11575 0.24903 -0.19971 -0.021835 0.32899 0.093431 -0.012888 0.020113 -0.041725 -0.036037 -0.46221 -0.035412 -0.30743 -0.094436 -0.045828 0.16108 -0.20988 0.27744 -0.081099 0.42528 -0.21949 -0.26473 -0.14451 0.086593 0.62559 -0.09926 -0.07147 -0.29664 0.038262 0.29701 0.050867 -0.16241 0.13776 -0.044293 -0.080352 0.085541 0.33362 0.4906 -0.047741 -0.18778 -0.05539 0.097977 0.25116 -0.16618 -0.068938 0.25415 0.093253 -0.16106 0.095477 0.090335 0.084502 0.35043 0.068879 -0.098385 0.33041 0.070515 -0.17972 -0.15392 0.053959 0.091257 0.37227 0.061294 0.013116 0.21372 0.17394 -0.093711 0.20782 0.042129 0.32471 0.12726 0.092196 -0.21221 -0.16427 -0.67232 0.23333 0.0066298 0.41177 0.13767 0.47387 0.12256 0.22753 -0.18946 -0.16081 0.23156 -0.031462 -0.22259
abuse -0.031083 -0.3479 -0.14292 -0.2222 -0.067661 0.059818 -0.1251 -0.14089 0.12017 0.41854 0.08961 0.058638 -0.19351 -0.11081 -0.045251 0.051248 -0.11952 0.39333 -0.053608 0.19152 0.19759 0.46654 -0.28325 -0.014159 0.012529 -0.31453 0.099562 -0.24958 0.028305 0.021412 -0.099093 0.0087025 0.17667 0.27612 0.19903 -0.032449 0.091054 -0.14431 0.043607 -0.005709 -0.052281 -0.15178 -0.1027 -0.23665 -0.11607 -0.70694 0.47835 -0.076588 0.43074 -0.037419 -8.3476E-4 -0.27227 0.014834 -0.30304 -0.028578 -0.29288 -0.097494 0.076479 0.22326 -0.060756 -0.11125 -0.049674 -0.083031 0.29421 -0.018012 0.37814 -0.068886 0.12615 -0.15408 0.10158 -0.04466 0.025086 0.38956 0.093217 0.43119 0.13393 0.1755 0.26157 0.062024 -0.34353 0.18154 0.15836 -0.42806 -0.38528 0.012838 -0.061209 0.018912 -0.31499 -0.044571 -0.024777 -0.21112 -0.19201 -0.12267 0.15182 0.007701 -0.069167 0.085866 0.066661 0.15322 -0.0074263 -0.2009 0.28139 -0.069534 -0.036503 -0.10634 -0.12885 0.1485 0.58503 0.34102 -0.41921 0.11556 -0.16021 -0.10738 0.2523 0.12096 0.078224 -0.2814 0.10368 0.58777 0.41467 -0.086636 -0.22947 0.24095 0.1494 0.21951 0.17892 -0.14952 6.2399E-4 -0.64775 0.38693 -0.0013859 -0.243 0.2086 -0.3091 0.21922 -0.019403 -0.21101 0.10727 0.22903 0.085461 -0.13231 0.28407 -0.42299 -0.21403 0.265 -0.023077 -0.10655 0.090736 0.139 0.028052 -0.08852 0.23658 0.31497 -0.35345 -0.010934 -0.19634 0.096239 0.043329 0.078465 -0.010758 -0.020429 0.11652 -0.17035 0.27584 0.2471 0.025416 -0.030478 0.080869 -0.29578 -0.1964 -0.28175 0.11569 -0.11329 0.074372 -0.49608 -0.10563 -0.23595 -0.064837 0.22775 -0.33814 0.20182 0.029525 0.10133 0.28337 -0.20646 -0.052348 -0.13522 -0.1682 -0.11925 0.004103 -0.10002 -0.13703 0.012387 -0.48023 -0.20788 -0.16313 0.14673 -0.53967 0.35154 0.013809 0.28212 -0.15557 0.31669 -0.13539 0.14463 0.081693 -0.13009 0.07422 -0.37906 -0.074541 -0.34581 0.56794 -0.30284 0.27142 -0.29745 0.10886 0.17927 -0.28133 0.14166 -0.18735 -0.074066 -0.12112 0.15946 -0.13368 -0.0077108 -0.092662 -0.001558 -0.31612 0.16829 -0.021284 0.14263 0.029248 -0.31383 0.13751 -0.13759 0.089267 0.21163 -0.25499 0.65354 -0.21199 -0.44458 -1.1482E-4 0.24078 0.11588 -7.5529E-4 0.18155 -0.19182 0.040609 0.11192 0.16276 0.15758 0.52567 -0.039688 0.19109 -0.097674 0.20342 -0.20445 -0.17363 0.014368 -0.053556 -0.069104 -0.13165 -0.18526 0.066228 0.40967 -0.087587 0.065504 -0.1456 -0.40971 0.036411 0.084103 -0.20588 -0.21404 0.08662 -0.26354 0.025103 -0.078631 0.34231 0.14806 -0.18304 0.12267 -0.0048654 0.023389 -0.31931 -0.076807 0.12664 -0.0019997 0.038508 -0.12463 -0.10241 0.2963 0.28739 0.084465 0.056334 0.051246 -0.37861 -0.39021 0.15607 0.34586 0.19911
criterion -0.031679 0.15619 0.013277 -0.039358 -0.1391 -0.23803 0.038197 -0.30542 0.24538 0.23136 0.35038 -0.28432 -0.35436 0.10163 0.15172 0.072423 -0.012884 -0.10259 0.12323 -0.014921 0.37832 -0.21189 0.076232 -0.043423 -0.070325 0.073172 0.20239 0.010367 -0.09902 0.10588 -0.40785 0.12725 0.15786 0.073621 -0.15019 -0.099746 -0.040052 -0.14542 0.19201 -0.1462 0.22678 -0.019853 -0.014908 -0.01371 -0.054965 -0.16308 0.081722 0.015501 -0.082019 -0.11154 0.13939 0.107 0.11882 -0.14917 0.0266 4.8522E-4 -0.2388 -0.048141 -0.056566 -0.057104 0.15444 -0.1963 -0.28454 -0.035989 0.22648 0.015499 -0.091781 -0.019722 -0.25839 0.054236 0.32428 -0.079365 -0.39142 -0.37549 0.14082 -0.1249 0.17841 0.078828 -0.21389 0.10362 0.27241 0.054403 -0.098125 0.19358 0.23967 -0.35762 0.11284 -0.070253 -0.074832 -0.07078 0.26587 0.040461 0.12329 0.22647 -0.11281 -0.38087 -0.073361 -0.022785 -0.25029 -0.23383 -0.050403 0.26079 -0.53648 -0.2122 -0.093075 -0.087407 -0.31431 0.16091 0.30844 0.061829 -0.08074 0.096546 -0.21527 -0.045003 -0.093073 0.066798 -0.17222 0.18325 -0.031448 0.06048 0.13445 0.099571 -0.31527 -0.035718 -0.36315 -0.028685 0.16995 -0.067715 0.080083 0.11031 -0.20958 -0.037622 -0.058236 0.046614 0.19211 0.3146 -0.24092 -0.12103 0.16999 -0.13169 -0.43458 0.037972 0.015907 0.093859 0.039817 0.30804 -0.14173 0.071241 -0.14245 -0.039188 0.012105 0.13684 -0.040544 0.029672 -0.044588 0.040913 -0.28991 0.14902 0.019328 -0.13942 0.031631 -0.27881 0.11074 0.020328 0.0061181 0.0222 0.23917 0.10136 -0.010247 -0.097646 -0.052643 0.29146 0.14224 -0.045019 0.070518 -0.28526 -0.096618 0.1336 -0.075167 -0.013043 -0.1578 0.13575 -0.021983 0.1965 -0.16224 -0.17427 -0.12156 -0.42582 0.18368 -0.18304 0.04697 0.29631 0.16078 -0.41617 -0.22348 -0.33436 -0.064273 -0.33645 -0.23264 -0.33424 0.24249 0.034216 -0.094985 -0.17966 0.33746 -0.23405 0.19924 -0.0026624 -0.14984 0.30827 0.19523 -0.048393 -0.10513 -0.18402 -0.26179 0.2224 -0.1431 -0.049053 -0.14004 0.023858 0.22544 -0.11207 -0.030199 0.065403 0.24184 0.089622 0.11853 -0.1238 0.054868 0.031482 -0.086873 -0.055124 -0.20169 -0.26834 -0.056166 -0.061113 -0.24218 0.13506 -0.04233 0.13137 0.28013 -0.19418 0.018507 0.0058708 0.45659 0.090255 0.016892 -0.15724 -0.012555 0.26145 -0.30374 0.074961 -0.044441 -0.02211 -0.30211 -0.16098 0.099283 -0.22848 -0.048494 -0.16568 -0.29681 0.1169 0.071167 0.012694 -0.061787 0.33245 -0.1392 -0.037407 0.068653 -0.15955 -0.18338 -0.060592 0.35987 -0.14095 0.13985 0.20426 -0.21241 0.38163 -0.22436 0.23405 0.23429 0.040246 -0.29796 -0.056054 0.15204 -0.2837 0.22529 0.053389 0.12617 0.2033 0.16612 0.2429 0.45614 0.27568 0.081816 -0.3606 0.26403 -0.0031743 0.055931 -0.070516
sea 0.026711 -0.010852 -0.13715 0.40495 -0.14283 -0.3043 -0.48952 0.12098 0.42387 0.24063 -0.057268 -0.4706 -0.10691 -0.18476 -0.018186 0.46285 -0.028002 -0.22539 0.3531 0.075165 0.27532 0.10026 -0.26442 0.33633 -0.015814 0.13178 0.038148 0.19791 0.50487 0.076119 -0.20244 0.47634 -0.097543 -0.34333 -0.25575 -0.33804 -0.08765 0.023885 0.10649 -0.26055 -0.29469 0.10768 0.028031 0.30829 -0.15084 -0.32011 0.11387 0.08952 -0.32096 0.06594 0.021476 0.264 0.0016837 0.14936 -0.38443 0.0011242 -0.12881 -0.26145 0.0043594 0.060876 0.15153 0.31298 -0.18639 -0.10671 0.18045 0.22022 -0.31215 -0.24836 -0.28082 0.12569 0.13387 -0.42926 -0.081802 -0.065393 -8.1948E-4 -0.14419 0.045123 -0.40124 0.29762 -0.1956 0.14892 0.013394 0.4107 -0.25589 0.15321 -0.32326 0.1657 0.38872 -0.18564 -0.086958 0.2582 0.14487 0.36935 0.4419 0.32424 0.35361 -0.050051 -0.21995 -0.2709 -0.083717 -0.29882 -0.081219 -0.22232 -0.13428 0.30718 0.061957 -0.16346 0.15742 -0.10358 -0.026076 0.1651 -0.2347 -0.36191 0.093146 0.24955 -0.066799 -0.18261 -0.041073 0.046365 0.082063 -0.3004 -0.044294 0.10325 0.2283 0.10184 0.21191 -0.010525 -0.51071 0.072444 0.45689 0.14428 0.033468 0.21379 -0.12842 -0.20263 -0.12258 0.32886 0.14319 0.089995 0.0085764 0.57233 -0.078791 -0.1916 -0.35225 0.13423 0.2278 0.15524 0.062357 -0.45463 0.16015 0.067801 -0.040573 0.084987 0.12783 -0.065279 -0.1057 0.16564 -0.1797 -0.30546 -0.058778 -0.1304 0.0049337 0.06519 -0.13482 -0.10704 -0.3728 0.15759 -0.092035 -0.13329 0.058662 0.22379 0.11265 0.11965 -0.34038 -0.030673 -0.55471 -0.28864 0.044949 0.2399 0.22622 0.21664 -0.31981 0.22018 0.067298 -0.19681 -0.18261 0.15205 -0.10432 0.084264 0.32312 -0.22618 -0.053639 -0.29639 -0.10545 0.12855 -0.17091 -0.10218 0.032487 0.18698 -0.12229 -0.15007 0.005542 -0.15818 -0.10605 0.14284 0.23779 0.17533 0.14099 0.046005 0.022857 -0.046458 0.18056 0.069131 0.22666 -0.80081 -0.14159 -0.21782 0.035936 0.44102 -0.022504 0.16562 -0.20126 0.0091609 0.010257 -0.20883 -0.16746 -0.21046 0.025731 -0.061349 0.31011 0.14115 0.16624 -0.10253 0.13855 0.063486 -0.17592 -0.063824 -0.048061 0.19837 -0.065932 -0.29414 0.16698 0.1274 -0.17713 0.26032 -0.5928 0.44123 0.014022 0.20276 -0.19482 0.24061 0.45079 0.0025193 -0.015834 -0.11349 1.3437E-5 0.40111 0.097044 0.11673 -0.21119 0.13146 -0.046205 0.12361 0.21407 -0.2723 0.013423 0.46381 0.010656 -0.033616 0.066587 -0.12083 -0.37767 0.17009 -0.076459 0.017851 -0.36554 -0.19541 -0.0074192 -0.0028817 0.0038519 0.12308 0.063963 -0.15979 -0.097183 0.02219 0.074763 -0.15547 -0.32682 0.24699 -0.071184 0.45172 0.018302 0.25248 0.24827 0.25652 0.027635 0.16094 0.14978 0.16853 0.047579
dollar 0.4413 -0.15122 -0.15353 0.16267 0.30317 0.34887 -0.017238 0.091613 0.522 -0.012893 -0.047277 -0.22908 -0.31945 -0.17939 -0.15498 0.14417 -0.32996 -0.19877 0.045828 0.33487 -0.43515 -0.11635 -0.16449 -0.11476 -0.14108 -0.10293 0.069904 -0.12158 -0.086776 -0.017446 0.17313 -0.027956 -0.41976 0.27012 -0.45358 -0.17292 -0.25032 0.53177 0.17835 0.016394 -5.2989E-4 -0.24499 -0.063103 -0.14874 -0.072804 0.0092271 0.416 -0.086465 0.037529 0.060801 -0.088786 0.19239 0.18601 -0.16208 -0.13764 -0.064294 -0.2208 0.047224 0.35223 0.13405 -0.42449 -0.27456 -0.14997 -0.58202 0.0016302 -0.038959 -0.44968 -0.11515 0.0036565 0.19355 -0.33682 0.14698 0.014569 -0.21308 -0.38652 0.079096 -0.22602 -0.10476 0.22929 -0.3373 0.25026 0.23841 -0.22684 0.28861 0.56913 -0.17461 0.034132 0.34552 0.039269 -0.30174 0.15297 0.33483 -0.22792 0.29328 -0.11205 0.24145 0.17 -0.36217 -0.093297 -0.18239 -0.33219 0.084901 -0.22351 -0.010075 -0.02277 -0.11373 0.28975 0.64758 -0.0092161 -0.092032 0.082571 -0.2094 0.25517 -0.085316 0.21643 -0.17452 -0.31358 -0.0014818 0.11022 -0.024097 -0.25922 0.15428 0.14318 0.039321 -0.16229 0.033136 -0.030076 -0.13915 0.14304 -0.079482 0.51941 -0.0036005 0.20918 -0.17812 0.097381 0.013922 0.37239 -0.33626 0.1561 0.044729 0.31264 0.12171 0.030714 -0.1413 -0.25424 0.13506 0.089174 0.19009 0.26701 0.09624 -0.0051298 -0.13945 -0.036015 0.08204 0.26933 0.16555 -0.041904 0.12629 0.073358 -0.35689 -0.13461 0.18263 0.2134 0.021462 -0.13123 -0.059332 -0.1845 0.15368 -0.11664 0.34872 -0.0052994 -0.21755 0.067299 0.024787 -0.11926 -0.30796 -0.013333 0.23319 0.49377 -0.37188 -0.10189 -0.45154 -0.21804 0.092461 0.24555 -0.026474 -0.0015306 0.081751 -0.094552 0.03669 0.38873 -0.1369 -0.094196 -0.18969 0.15512 -0.25912 0.017716 0.23471 -0.017764 0.11531 0.046971 0.27597 0.51689 -0.24964 -0.091163 -0.24664 -0.017347 -0.26846 -0.23298 0.28034 -0.19505 0.18161 0.14145 -0.11439 0.039807 0.11896 -0.013328 0.099884 0.52047 0.11052 -0.13932 -0.40574 -0.21487 0.10772 0.054692 0.29984 0.0049081 0.2296 0.28946 -0.10861 -0.18452 -0.28921 0.16588 -0.085247 -0.080003 -0.21129 -0.21962 -0.34119 -0.1641 0.29456 -0.3035 -0.51604 -0.36806 0.079331 0.31141 -0.30586 0.1775 0.24977 -0.14073 0.11501 -0.22728 0.27468 0.47718 -0.2229 0.44993 -0.14955 0.17716 -0.020786 -0.12976 -0.19202 0.2338 0.18598 0.4543 0.053646 -0.2043 0.13721 0.037174 -0.13632 -0.22281 0.13163 0.26817 -0.077461 0.024345 -0.12175 -0.15732 0.17541 0.43922 -0.27555 0.17887 -0.10259 0.064461 -0.38505 -0.087296 0.23772 0.07666 0.33505 -0.20721 0.012561 0.11226 0.12229 -0.0043851 0.22565 0.14356 -0.046081 -0.38408 0.059047 0.046858 0.12913 0.084686 0.043247
example 0.17979 -0.018418 0.034149 -0.10481 -0.24695 -0.10799 -0.16271 0.057851 0.13226 0.085589 0.009009 -0.051889 0.06982 0.046088 -0.20238 0.065791 -0.087377 0.03631 0.059778 0.080556 0.26233 0.065606 0.093122 -0.1191 -0.24054 0.052496 0.041289 -0.1631 -0.21259 0.04389 -0.099598 0.12063 -0.12244 0.096392 -0.082351 -0.17259 -0.16861 -0.030971 -0.025371 -0.12461 0.10424 -0.083014 0.29075 0.1109 0.1046 -0.032414 0.35209 0.035379 0.1226 -0.0012456 -0.080113 0.15715 -0.039345 0.079796 -0.10232 -0.015005 -0.15739 -0.089973 -0.081704 -0.16533 0.16513 0.055771 -0.072936 -0.098526 -0.061124 -0.031373 -0.33365 -0.066208 0.012869 0.091237 0.15347 -0.1116 0.0013629 0.23939 -0.068317 0.24595 0.0033735 -0.066736 0.040418 -0.15938 0.31136 -0.10963 -0.15418 0.051479 0.39924 -0.10057 0.049289 -0.052463 0.025329 0.13496 0.041727 0.017207 -0.011403 -0.030948 -0.10236 -0.10149 0.02061 0.056946 -0.24846 -0.26389 0.04371 0.098556 0.058763 0.0011558 -0.079221 0.12693 -0.023601 0.46246 0.19836 0.040171 -0.015909 -0.0086502 0.059357 0.16089 3.3161E-4 0.026883 -0.0378 -0.026873 0.055507 -0.0026748 0.098439 -0.025936 -0.029905 0.11377 -0.087195 0.10102 -0.096584 -0.050584 -0.067173 0.20008 -0.021895 -0.082531 -0.099806 0.070327 0.12475 0.18399 -0.20157 -0.067774 -0.18468 0.28368 -0.048119 0.14067 0.037789 -0.052032 0.023071 0.087986 -0.031058 0.20336 0.039695 -0.0099533 0.26083 -0.026798 -0.089187 -0.10814 0.26266 -0.13351 -0.1547 0.0018808 0.084183 0.12526 -0.15773 -0.042852 0.048761 -0.0099893 -0.091215 0.20834 0.3 0.17741 -0.11541 0.037375 0.15881 -0.060436 -0.18108 -0.093939 -0.17311 -0.25387 -0.13261 -0.14584 0.035137 0.21135 -0.16641 -0.07193 0.034677 0.12617 1.1224E-4 0.053559 -0.13077 0.033049 0.038996 0.17889 0.054363 0.13034 -0.065945 -0.11434 -0.14227 0.010709 -0.044685 -0.045098 -0.08539 -0.030544 0.16373 0.22414 -0.061913 -0.026422 0.12619 -0.081671 0.19379 0.10341 -0.019056 0.19822 -0.14793 0.10943 -0.055101 0.14225 0.048751 -0.16609 0.084127 -0.095293 0.33936 0.064321 -0.069626 -0.25549 0.016828 0.045188 0.11352 -0.12166 0.033031 -0.20643 -0.020585 -0.21501 0.071113 0.085023 -0.018546 0.15952 -0.0044331 -0.071627 -0.17325 0.19044 0.13374 -0.14524 0.04693 0.063798 0.056015 -0.060312 0.30849 -0.033439 -0.1258 0.10342 -0.10258 0.093064 0.0045017 0.0035017 0.15798 -0.085704 0.045568 0.017208 0.087421 -0.13826 -0.25729 -0.013631 0.13109 0.22891 0.16264 -0.11559 -0.006704 0.1441 0.23272 0.24166 -0.099312 0.29422 0.043831 -0.047492 0.11802 0.024808 0.23144 0.12293 -0.13711 -0.043495 0.048598 0.14019 0.14595 -0.050378 -0.067218 -0.20305 0.01158 -0.15604 9.8912E-4 -0.12046 -0.02081 0.031516 0.30046 0.11388 0.043261 7.9309E-4 -0.11092 -0.20389 0.047041 0.0015519 -0.1069 -0.015223
journal 0.031485 -0.16472 0.35388 0.17755 -0.19389 -0.24717 -0.12096 -0.23896 0.18667 0.1585 0.2269 -0.34024 -0.76762 -0.018407 -0.24124 0.50982 -0.20586 0.2824 0.49304 0.18402 0.22376 0.22061 0.088189 0.091466 0.36708 -0.16371 0.21518 -0.16996 0.19584 0.13011 -0.51799 -0.20606 0.12493 0.113 -0.28204 -0.082568 0.18984 0.32963 -0.56396 -0.089435 -0.014658 0.060259 0.29619 0.082493 0.20244 -0.2605 0.57197 -0.23557 -0.12953 0.243 -0.16491 0.16682 0.20989 -0.19724 0.11439 -0.44296 -0.037315 0.15837 0.12662 -0.29632 0.26244 0.25981 -0.25158 -0.055953 -0.15725 -0.18773 -0.44126 -0.37621 -0.33204 0.17309 0.048041 -0.046492 -0.029821 -0.2519 0.22217 0.072245 -0.047626 0.20311 -0.17862 -0.15099 -0.088238 0.1951 -0.47877 -0.21776 -0.090709 -0.26568 0.20906 -0.0033974 0.083002 0.11639 -0.091036 0.34568 0.39415 -0.14466 -0.2034 -0.003989 -0.14014 -0.08524 -0.056091 -0.1357 -0.59877 0.3975 0.084346 0.23879 0.078043 0.6248 0.095432 -0.036322 -0.17345 0.014769 0.13143 -0.27471 0.24198 0.22278 0.39136 0.21486 0.29165 -0.11121 -0.13936 0.20226 0.32313 -0.47515 -0.42297 0.14187 -0.35577 0.4624 0.010999 0.18285 -0.25476 0.32027 -0.3662 0.12272 -0.18804 0.18183 -0.15728 0.10912 0.29333 0.25246 0.33099 0.22571 -0.14355 -0.11495 0.1379 0.021651 -0.10157 0.095749 0.20097 0.052567 -0.085861 0.16901 0.10327 0.12697 0.18119 0.072017 0.16282 0.081296 0.37824 -0.39397 -0.33306 -0.11735 -0.076655 -0.058917 -0.019993 -0.23243 0.07108 -0.13719 0.032061 0.10979 -0.077169 -0.076933 -0.23273 0.22964 -0.37637 -0.059318 0.03246 -0.091685 -0.30132 0.11213 0.12168 0.22551 -0.20574 -0.35979 0.41216 0.32329 0.064858 -0.31186 -0.13355 -0.22614 0.06538 -0.061209 -0.47643 0.14698 -0.13568 -0.11153 -0.076513 -0.20364 -0.13473 -0.17187 -0.21349 0.16137 0.07697 0.20372 -0.11356 -0.26446 0.017129 -0.21232 0.001964 0.34907 -0.50796 0.063599 0.069605 0.1239 0.056658 0.23085 0.33735 0.10034 -0.19502 0.21288 0.44311 0.096077 -0.025165 -0.17581 -0.061783 0.20076 -0.090215 0.15332 0.19474 -0.10157 0.11809 -0.1713 0.22956 0.16846 -0.039259 -0.59645 0.20566 0.31609 0.067979 -0.17843 0.076659 0.0078025 -0.1119 0.12094 0.45672 -0.35567 0.1685 -0.24713 -0.48376 -0.26682 -0.14306 0.046016 -0.24626 0.35456 -0.081044 0.086485 0.10232 0.29857 0.35508 -0.15474 -0.069759 0.017875 -0.18436 0.20914 0.36545 0.0047211 -0.076255 0.30634 0.26277 0.022946 0.049268 0.22646 -0.32407 -0.55774 0.35924 -0.0071004 -0.0089139 0.096785 0.17536 -0.17084 0.20409 0.41319 -0.24942 -0.28365 0.34856 -0.23614 0.12864 -0.16568 -0.28245 0.10885 -0.16865 0.12001 0.33098 -0.075715 0.1665 0.29828 -0.10426 -0.17434 0.17059 -0.086454 0.44012 -0.15497
laundering -0.14568 -0.087638 -0.10627 -0.86974 -0.26233 0.20959 -0.41297 0.073978 0.17975 0.25161 0.1308 -0.23332 -0.087381 0.11376 0.18752 0.31211 -0.43077 -0.31702 -0.3248 -0.15776 -0.22495 0.18149 -0.059624 -0.21921 -0.36136 -0.23533 -0.23399 -0.014714 0.28247 -0.23607 0.25992 -0.11885 0.019063 0.21445 -0.33738 0.16492 -0.35635 0.12288 0.21675 0.12358 -0.077625 -0.56895 -0.12596 -0.35249 0.1272 -0.29532 0.098999 0.24537 -0.10995 -0.069656 0.22375 0.097534 0.19111 -0.21796 -0.17522 -0.23603 -0.15676 0.076681 0.173 -0.02022 0.0032067 0.49198 0.23106 -0.04442 -0.19516 0.10944 -0.45839 0.0011985 -0.04239 0.069485 -0.14055 0.051055 0.15531 -0.22411 0.26502 0.004615 0.042666 0.42311 -0.024944 -0.19755 0.37574 -0.21274 -0.20045 -0.14081 0.20549 -0.10962 -0.45267 0.32724 0.31629 -0.086333 -0.34385 0.19227 0.067219 0.22338 0.012549 -0.18941 -0.3607 -0.058553 0.3104 0.0074773 0.05745 0.060158 0.03985 -0.040145 0.086167 -0.27884 -0.16062 0.60299 0.22639 -0.20147 0.26398 0.035275 -0.011827 -0.30108 -0.18242 -0.19989 -0.013276 -0.010607 0.28481 0.24072 -0.082388 -0.02724 0.44783 0.42468 -0.079872 0.023175 -0.16086 0.041529 -0.10429 0.23239 0.04068 -0.14725 0.13286 0.016933 0.61488 -0.061765 -0.12403 -0.068057 0.15748 0.033598 -0.12122 0.18187 -0.12201 -0.20472 0.1591 0.038005 0.18795 -0.096309 0.025751 0.15491 -0.20503 0.093444 0.38246 0.33923 -0.091725 -0.36215 0.50854 0.36884 -0.060117 -0.24301 -0.11795 0.095514 0.39949 0.042764 0.079657 0.26001 -0.298 -0.035577 -0.012028 -0.38782 0.20144 0.17088 -0.16284 0.24174 -0.0022796 -0.062427 -0.24976 0.02108 0.19218 -0.25532 -0.22882 -0.10613 0.030436 0.41013 -0.1276 -0.07754 -0.13463 -0.18335 -0.10016 -0.061088 0.16536 0.31744 -0.2733 -0.33621 0.14298 -0.33874 -0.28393 -0.37089 0.083732 -0.24996 0.32692 0.19699 0.42734 -0.32662 0.10559 -0.044698 0.2532 -0.11742 -0.13143 0.4824 -0.13218 0.29238 0.11885 0.22434 -0.26298 -0.17914 -0.034773 -0.28421 0.5939 -0.42524 0.089402 -0.23694 0.15133 -0.017305 -0.035506 0.1239 0.50202 -0.21699 -0.14076 -0.24239 0.2635 0.10773 -0.15177 0.25481 -0.23511 0.39648 0.60914 0.36607 -0.15287 0.23135 -0.059542 -0.16957 -0.068311 0.022806 0.35566 -0.28841 0.51662 0.39863 -0.024333 -0.013108 0.27102 0.43713 0.23429 0.047549 0.30565 -0.14951 -0.64265 -0.2621 -0.017485 -0.048404 -0.41172 0.19094 0.37616 0.22798 0.050123 0.24391 0.26871 0.22902 0.043773 -0.36904 -0.1266 0.061142 0.020036 0.12893 -0.34798 -0.13624 -0.06579 -0.39968 -0.036143 -0.3939 -0.29602 -0.012643 -0.17732 -0.017785 0.17891 0.10824 0.5874 0.10105 -0.12767 -0.14591 -0.31271 0.1113 0.2634 -0.56017 0.15924 -0.12845 0.13817 0.044009 0.3039 0.14197
hotel 0.020281 0.059863 -0.41082 -0.1489 -0.19506 -0.14081 -0.2702 0.11868 0.46217 0.34947 0.23668 -0.39437 -0.076457 0.13693 0.065535 0.37321 -0.24378 -0.038904 0.1975 0.06541 0.067477 0.30361 -0.13872 0.021796 0.0097343 -0.55642 0.047472 -0.10514 -0.010897 -0.16835 0.14519 0.076793 -0.24169 0.25553 -0.26826 0.013924 -0.19769 -0.16582 0.18967 -0.13614 -0.057278 -0.32083 -0.383 0.071697 -0.35163 0.055749 -0.016431 0.32026 -0.041503 0.1254 0.10609 0.080592 0.46169 -0.27112 0.0063701 -0.17116 -0.23624 0.13232 0.079813 0.27688 0.065906 -0.30917 -0.074329 -0.10025 0.22468 0.10582 -0.015854 -0.29419 -0.50523 -0.28539 -0.02702 -0.10603 -0.010593 0.044861 -0.32637 -0.1252 0.1316 -0.053181 0.14075 0.0074369 0.27775 0.0073796 -0.10775 0.090708 0.44138 -0.098835 -0.021708 0.058121 -0.068288 0.34385 -0.090348 0.090286 0.12718 0.31259 0.42818 0.48998 -0.13718 -0.0015705 0.0030247 -0.067839 0.076721 -0.11529 -0.21016 -0.14588 0.038919 0.13812 -0.10148 0.39797 0.078116 0.079244 -0.025983 0.2832 0.11816 -0.093971 -0.11731 -0.01828 -0.12335 0.31688 -0.17986 0.54719 -0.037209 -0.18293 -0.057407 0.22663 -0.20611 -0.10487 -0.17066 0.0814 -0.18899 -0.037616 0.14598 0.01893 -0.29131 0.2529 0.28436 -0.18428 0.056528 0.13675 0.088533 0.12351 0.040566 0.054288 0.16361 0.013639 0.030568 0.29907 -0.011016 0.031322 -0.33159 0.24117 0.20156 0.065599 -0.20166 0.14248 0.010817 0.035308 0.056315 0.03138 0.12957 0.37663 0.18913 -0.10876 0.10103 -0.085019 0.16174 -0.16933 0.20069 0.038218 0.088275 -0.18221 0.26683 0.23859 -0.019243 -0.2167 0.053533 -0.14477 -0.2106 -0.30047 0.2734 -0.037574 0.05392 -0.2598 0.018449 -0.099664 0.17638 -0.19197 0.21289 -0.29324 0.052414 0.27908 0.023094 -0.24541 -0.12232 0.19836 -0.080568 -0.081524 0.16067 -0.1215 0.1473 0.071387 0.034553 -0.15598 0.24903 -0.17543 -0.1952 0.18959 0.21397 0.22709 -0.13625 0.21654 0.075761 -0.079269 0.046657 -0.31054 0.084005 0.016186 -0.14544 -0.3334 0.23286 0.1319 -0.011817 0.022637 0.094614 0.12422 -0.15851 0.19752 -0.18989 0.25223 0.058677 0.062904 0.0048333 -0.17788 -0.1918 0.14724 -0.16203 -0.13189 -0.20471 0.2355 -0.34314 0.147 -0.028526 0.19029 -0.11871 -0.015272 0.31413 -0.049024 -0.0066877 0.043666 0.10089 0.17052 0.20664 0.35167 -0.063511 0.057177 0.2811 -0.15728 0.0030369 -0.18621 0.10405 -0.12918 -0.19592 -0.12118 0.11671 0.21335 0.1873 0.1184 0.3894 0.33762 -0.064161 0.064554 -0.057652 0.034733 0.24854 0.17308 0.1745 -0.086837 -0.24609 0.30776 0.091021 0.12278 0.018221 -0.078505 0.25344 -0.27322 0.13737 -0.11901 -0.19188 -0.15428 0.13312 -0.018574 -0.20492 0.40524 -0.13533 0.0459 0.11705 0.23968 -0.12706 0.30676 0.24209 -0.32696
term 0.1867 0.10171 0.17158 -0.21105 0.052284 0.035891 -0.39307 0.13005 0.45194 -0.0017093 0.021527 0.099759 0.0020498 0.045894 -0.067042 0.32285 0.14208 -0.17625 -0.25985 -0.085201 0.052682 0.1198 0.015212 -0.1278 -0.21695 -0.049113 -0.23196 -0.090868 -0.18111 -0.31822 -0.10163 0.19372 -0.27983 -0.033879 0.37587 -0.17397 0.040239 0.1679 -0.078056 0.14399 0.13429 -0.1389 -0.055941 -0.15384 -0.23586 -0.027451 0.43286 0.10233 0.10884 0.093834 0.13345 0.2622 0.033719 0.19324 -0.094818 -0.4598 -0.39812 0.25439 0.36249 0.016268 -0.1445 -0.055908 -0.01509 0.11107 -0.1402 -0.061359 -0.27553 -0.020829 0.26851 0.12626 0.076392 0.056045 0.16483 -0.075343 -0.13204 0.032904 0.31623 0.036796 -0.19156 0.042242 -0.0053178 -0.0033234 -0.012965 -0.035042 0.1429 0.072807 0.1373 0.15006 -0.28493 -0.14257 -0.11972 0.27906 0.42321 0.099451 -0.20149 -0.15281 -0.01061 0.022994 0.010256 -0.15206 0.1735 0.22682 0.11739 0.030088 -0.25204 -0.28753 -0.27603 0.44096 0.18024 -0.30261 0.018824 -0.31937 0.31185 -1.8665E-4 0.22786 0.2245 -0.08219 -0.18178 -0.47195 0.35358 0.02199 0.089849 -0.14351 -0.23082 -0.060059 -0.11102 0.056804 -0.013951 0.15959 0.23064 0.048175 -0.07328 0.14438 -0.18822 0.34681 -0.22291 0.35072 0.063544 -0.18838 -0.19545 -0.43306 0.46888 -0.20111 -0.0097502 0.12631 -0.2398 0.13842 0.066302 0.13607 0.16524 -0.24591 -0.11152 -0.16342 0.21476 0.051828 -0.22452 -0.15486 0.10107 -0.01095 -0.29339 -0.32638 -0.1579 0.20477 -0.0066665 0.088369 -0.15454 -0.23725 0.47766 0.11635 -0.2744 -0.038137 -0.031659 0.028348 -0.18326 0.0071911 -0.14776 -0.16567 -0.095171 0.05337 -0.27514 -0.2872 0.43031 -0.2299 0.092556 -0.44764 0.0082357 -0.1956 -0.10668 -0.081509 0.037769 -0.036636 -0.28905 0.24668 -0.11547 0.086807 0.053514 -0.43841 -0.14083 -0.041309 -0.31482 0.25847 -0.19139 0.03383 -0.041409 0.058941 -0.074998 0.14013 0.071468 0.13371 0.1215 -0.081483 0.12962 -0.239 -0.2426 0.11323 -0.11783 0.13974 0.13323 0.17484 -0.27556 0.11001 0.037377 0.0056222 0.38024 0.10735 0.021236 -0.054403 -0.10045 0.033655 -0.48557 -0.26657 -0.35521 0.32301 0.18262 0.14954 -0.29335 -0.08031 0.13257 0.32173 0.39264 0.064077 0.062314 -0.005895 -0.0091916 0.16142 -0.26623 -0.47828 0.27025 0.01112 0.47604 -0.067269 0.078479 0.1166 0.053454 -0.31007 0.10661 -0.32535 -0.12091 0.041322 -0.18143 -0.31293 0.032704 0.045452 0.25826 -0.05494 0.4659 0.34536 -0.11881 0.2499 0.19579 -0.26836 -0.26593 0.21968 0.16723 -0.26968 0.24799 -0.06808 0.024277 -0.18806 -0.14907 0.37279 -0.099465 -0.34891 0.13928 0.16892 -0.045077 0.25168 -0.21822 -5.298E-4 -0.095565 0.075718 0.12009 0.29103 0.13022 0.23341 -0.092748 -0.038078 -0.17451 -0.14049 0.1584
